svm_type c_svc
kernel_type rbf
gamma 0.0001220703125
nr_class 5
total_sv 932
rho 0.85819765944672999 0.81077696732033633 0.89108958625353418 0.78519862126905249 -0.028294672279294816 0.094204265611099056 -0.31630582401942337 0.067779251463643705 -0.068803083440007504 -0.35203813915169591
label 0 1 3 4 2
nr_sv 181 190 188 192 181
SV
2 0 2 2 1:176 2:3.671604 3:5.593048 4:-5.107537 5:22.16404 6:18.73741 7:15.59786 8:17.43471 9:16.96235 10:12.82146 11:12.27318 12:14.78918 13:2.007295 14:14.21343 15:-0.1658397 16:0.04896686 17:0.3668807 18:0.2992769 19:-0.6184941 20:1.355971 21:2.581393 22:-0.3826926 23:-1.455442 24:0.5198038 25:0.7269534 26:1.648228 27:0.1065794 28:-0.07717474 29:-0.08137976 30:0.1017347 31:-0.03763424 32:-0.03388926 33:-0.08115155 34:0.2851388 35:-0.03766693 36:0.2561314 37:-0.922401 38:-0.3381507 39:0.7124292 40:-0.02337576 41:0.5054348 42:0.2173975 44:0.0002227603 45:0.01189306 49:1.080369 50:4.128969 51:0.8862469 52:5.621719 53:0.8654681 54:-5.701995 55:0.9851274 56:21.55123 57:2.492342 58:19.9366 59:3.105768 60:14.28655 61:4.42767 62:13.83419 63:0.6993079 64:17.52341 65:2.535841 66:14.52358 67:3.224871 68:10.91792 69:1.27751 70:13.79007 71:2.660272 72:-0.1442025 73:0.1747657 74:14.08966 75:0.2832781 76:-0.05142702 77:0.2295046 78:-0.01295886 79:0.4022671 80:0.1627834 81:0.4220095 82:0.3045233 83:0.4219598 84:-0.5142387 85:0.5753064 86:0.3166559 87:1.392929 88:0.9246053 89:0.3966019 90:-0.1464707 91:0.8348938 92:-0.8591241 93:1.462645 94:1.721174 95:0.5164728 96:0.7695791 97:1.537632 98:-0.1472266 99:0.04723999 100:0.06806301 101:0.1071055 102:0.01638839 103:0.07907352 104:-0.02701608 105:0.2659735 106:0.153194 107:0.4743604 108:0.2378878 109:0.2459877 110:-0.06336942 111:0.460505 112:0.1501368 113:0.9870004 114:0.4241396 115:0.207584 116:-0.07306908 117:0.5715551 118:-0.03465725 119:0.3750364 120:-0.3536444 121:0.09615157 122:-0.2356254 123:0.4312746 124:0.1907286 125:0.03681016 126:-0.0005244139 127:0.0665557 128:0.4591436 129:3.534979 130:-2.281398 133:7.932772e-05 134:0.0001160299 135:0.00410781 136:0.005659606 
0 0 2 2 1:161 2:-6.083628 3:21.25002 4:11.07633 5:18.99272 6:11.99508 7:7.50589 8:19.5561 9:3.824377 10:21.31549 11:5.323211 12:8.769977 13:2.058306 14:14.50259 15:0.2699208 16:1.236272 17:0.9010689 18:-1.971632 19:2.137325 20:0.8285289 21:-0.4736323 22:-2.713583 23:0.9454972 24:-1.882172 25:-0.3909515 26:0.3412097 27:0.06383772 28:0.01651816 29:-0.1240417 30:-0.2082265 31:-0.1892873 32:-0.4609006 33:0.4861093 34:0.008869065 35:-0.01740768 36:0.3928358 37:0.3620819 38:-0.5664123 39:-0.1798831 40:-0.009671926 41:0.4949373 42:-0.9462956 44:6.651731e-05 45:0.004173739 49:0.4308853 50:-6.432148 51:1.964973 52:19.75685 53:1.893726 54:10.21981 55:3.418343 56:21.77317 57:3.689669 58:8.988859 59:1.575217 60:6.547468 61:0.9174906 62:20.26358 63:4.350106 64:7.371034 65:2.428977 66:19.76031 67:3.029516 68:7.779869 69:1.978147 70:9.582228 71:1.105487 72:1.884071 73:0.1061771 74:14.42952 75:0.131621 76:0.1312426 77:0.4743028 78:0.6390297 79:0.5519581 80:0.499505 81:0.9476872 82:-0.7124323 83:0.8283446 84:1.472584 85:1.049214 86:-0.3122063 87:0.5174125 88:-0.1799196 89:1.083946 90:-1.210105 91:0.8544295 92:0.1424632 93:0.6834739 94:-1.235206 95:1.039816 96:0.2590776 97:0.3846762 98:0.3030242 99:0.02506275 100:0.03420292 101:0.1218254 102:0.05652525 103:0.4668375 104:0.1115538 105:0.3298422 106:-0.01586998 107:0.7349409 108:-0.3287352 109:0.4228386 110:-0.193549 111:0.5404871 112:0.4853776 113:0.1374107 114:-0.05362239 115:0.9959573 116:-0.3497461 117:0.3107778 118:0.1170197 119:0.4893605 120:0.0982395 121:0.4062523 122:-0.3646112 123:0.2708806 124:-0.3477516 125:0.01078839 126:-0.005923124 127:0.02340854 128:0.4768782 129:1.2845 130:-1.993869 133:4.862553e-05 134:1.538558e-05 135:0.002099438 136:0.001757458 
2 0 1.6862245060325289 2 1:176 2:3.740871 3:2.427987 4:-5.688181 5:16.56029 6:17.06378 7:9.083166 8:9.881907 9:8.316749 10:18.06895 11:12.84525 12:9.930497 13:-5.19229 14:14.1668 15:-0.1744995 16:0.3108225 17:-1.432496 18:-0.8306946 19:2.319013 20:0.9313602 21:-0.2794949 22:-0.8879939 23:0.5456386 24:-0.3594498 25:-1.441138 26:-0.9904734 27:0.02646694 28:0.1216361 29:-0.0307525 30:-0.0436893 31:0.1455321 32:-0.3243191 33:0.05609409 34:-0.1504379 35:-0.3632404 36:0.4322269 37:-0.4386148 38:-0.0425758 39:0.2529221 40:-0.008743334 41:0.383816 42:-5.988274 44:-0.0001332107 45:-0.007378385 49:0.4769878 50:4.065975 51:0.557686 52:2.140759 53:2.337981 54:-3.883469 55:1.695619 56:17.85793 57:3.652552 58:14.21788 59:1.575446 60:7.82514 61:0.4723751 62:10.19593 63:1.533121 64:9.565593 65:1.475485 66:17.06618 67:1.2102 68:13.44426 69:3.09353 70:12.10227 71:1.789688 72:-4.256115 73:0.06289242 74:14.1433 75:0.2027063 76:-0.2330309 77:0.1065065 78:0.132844 79:0.695998 80:-0.5173234 81:0.3336355 82:-0.61182 83:0.7757215 84:1.294756 85:0.4443411 86:0.4175282 87:0.3152177 88:0.1289208 89:0.8510602 90:-0.005523091 91:0.8968652 92:-0.1396206 93:0.784257 94:0.2494359 95:0.7645532 96:-0.8964276 97:0.4146783 98:-0.5935022 99:0.01954328 100:0.01712666 101:0.03509501 102:0.09898728 103:0.06694081 104:0.001748163 105:0.3594582 106:-0.03475055 107:0.09077507 108:0.1564453 109:0.6357029 110:-0.002478552 111:0.2565327 112:0.04574959 113:0.07704965 114:-0.04791763 115:0.3059495 116:-0.1247666 117:0.3804618 118:0.2816419 119:0.4095352 120:0.006626609 121:0.6630181 122:-0.2426756 123:0.3340315 124:0.01940776 125:0.01107741 126:-0.0004017121 127:0.04351383 128:0.4191832 129:2.394676 130:-4.037757 133:5.300969e-05 134:-5.631581e-05 135:0.003192864 136:-0.002678364 
1.8336848956683005 1.9263555591896124 2 2 1:157 2:-7.657262 3:-10.85043 4:-13.25921 5:27.15417 6:26.63638 7:-9.893507 8:11.21434 9:19.31634 10:36.19777 11:28.30799 12:-0.8185711 13:15.87188 14:14.35185 15:0.5355532 16:-4.939886 17:-4.194165 18:-1.697539 19:4.918628 20:-2.464369 21:0.5904645 22:3.554493 23:3.139739 24:1.962374 25:-2.551641 26:2.363309 27:0.02035198 28:-0.8426588 29:2.005195 30:2.209785 31:1.289779 32:-1.55217 33:1.672133 34:0.3074815 35:-1.129121 36:-0.803731 37:0.09849893 38:0.6497161 39:-1.055577 40:-0.01607557 41:0.2787464 42:-10.58466 44:6.349247e-05 45:0.003513287 47:0.005 48:0.0015 49:3.014156 50:-7.714601 51:8.302824 52:-4.941538 53:6.833756 54:-7.744705 55:3.965082 56:28.5847 57:8.395597 58:20.80622 59:5.277689 60:-7.440273 61:3.972222 62:9.705595 63:5.749 64:14.63672 65:5.010249 66:32.46078 67:5.243853 68:24.95735 69:4.505715 70:2.068584 71:4.052276 72:12.56997 73:0.06189729 74:14.3372 75:1.377854 76:0.9408804 77:3.001141 78:-4.159242 79:3.172894 80:-4.470908 81:2.044232 82:-2.016819 83:2.471303 84:3.511761 85:2.496916 86:-2.4315 87:0.9635915 88:0.4606837 89:1.708529 90:2.937092 91:1.256413 92:2.039261 93:1.163195 94:1.018564 95:1.090002 96:-1.538711 97:1.70339 98:2.499293 99:0.02593757 100:0.02231503 101:0.4182979 102:-0.4072879 103:1.272812 104:0.8793228 105:1.045275 106:1.076372 107:0.8630918 108:0.4105396 109:1.247909 110:-0.6121832 111:0.6386932 112:0.8587859 113:0.4828292 114:0.2535903 115:1.039923 116:-0.2990098 117:0.6052832 118:-0.3326667 119:0.3604633 120:-0.1602052 121:0.2289549 122:0.5071849 123:0.7447636 124:-0.4479581 125:0.008525226 126:-0.006665763 127:0.02259085 128:0.2673132 129:1.629342 130:-11.11097 133:7.001523e-05 134:1.388675e-05 135:0.003636557 136:0.0003948808 139:0.00244949 140:0.003 141:0.0005477226 142:0.0009999999 
2 0 2 2 1:183 2:-3.134242 3:4.782327 4:-1.536091 5:18.21709 6:11.42028 7:-3.375459 8:9.865486 9:9.066863 10:13.98837 11:13.53609 12:19.65645 13:11.11909 14:14.14201 15:-0.3287238 16:2.04468 17:0.3480997 18:-3.774678 19:-1.002393 20:1.995803 21:2.491055 22:3.807533 23:-3.007163 24:0.1136171 25:-0.2028441 26:-3.105117 27:-0.03628769 28:0.1344338 29:-0.4895492 30:-0.6369298 31:0.5637218 32:0.3700483 33:0.5899651 34:-0.04040542 35:-1.366977 36:0.2022819 37:0.4034678 38:-0.3200995 39:0.1354473 40:0.001509752 41:0.2558052 42:-11.48465 44:-5.006299e-05 45:-0.002239369 49:0.9164004 50:-2.809402 51:3.224231 52:2.249343 53:2.315623 54:-1.483247 55:6.23514 56:23.30458 57:1.76917 58:12.42162 59:3.085498 60:-5.705268 61:3.863908 62:6.926144 63:6.214811 64:4.710337 65:5.500125 66:18.34745 67:2.852897 68:12.815 69:1.032935 70:20.10378 71:4.936953 72:15.09777 73:0.05760358 74:14.18842 75:0.2607935 76:-0.2006418 77:0.8155701 78:1.415586 79:1.01615 80:0.6122306 81:1.336575 82:-2.455644 83:0.6845679 84:-0.6601099 85:1.459614 86:0.08464801 87:0.9013497 88:1.006627 89:2.036678 90:3.012576 91:1.150142 92:-1.608924 93:0.7927914 94:-0.09388478 95:0.7788324 96:0.06475828 97:1.394673 98:-1.582167 99:0.01304746 100:-0.01724711 101:0.1770464 102:0.01504907 103:0.5154004 104:-0.1489195 105:0.3420595 106:-0.3506355 107:0.9953367 108:0.09583022 109:0.08566038 110:0.2429211 111:0.7585642 112:0.5271241 113:0.6905997 114:0.1473866 115:1.149052 116:-0.4277578 117:0.6098006 118:0.05825452 119:0.5002964 120:-0.04895169 121:0.3067512 122:-0.255986 123:1.024271 124:-0.1796108 125:0.006393597 126:0.001748606 127:0.01951006 128:0.2706081 129:0.8249179 130:-11.01317 133:4.652208e-05 134:-9.56075e-07 135:0.001894691 136:0.0005612685 
2 0 2 2 1:206 2:-1.9233 3:15.02599 4:12.29123 5:24.97596 6:-4.500986 7:-0.7067467 8:9.500077 9:1.000099 10:8.609344 11:16.35629 12:12.77704 13:8.571139 14:13.97746 15:-0.3957572 16:0.1473888 17:-0.8576311 18:0.8875691 19:-0.8245525 20:-0.629217 21:1.995836 22:0.05747823 23:-0.1032834 24:0.7041323 25:1.862295 26:2.795119 27:0.03263998 28:0.03983389 29:-0.283609 30:-0.1461603 31:0.04674389 32:0.2452957 33:-0.3676088 34:-0.3982734 35:0.4967483 36:0.6416354 37:0.4033723 38:-0.7055939 39:-0.8009214 40:0.00701232 41:0.3592906 42:-5.955484 44:6.681453e-05 45:0.004310076 49:0.6605725 50:-1.479337 51:1.072266 52:14.58071 53:1.938251 54:13.06574 55:1.505973 56:23.7558 57:1.396089 58:-3.506573 59:2.530644 60:0.5516582 61:4.618318 62:7.76043 63:2.889081 64:1.583444 65:0.1544503 66:8.734659 67:6.803273 68:14.03408 69:3.924672 70:10.85768 71:4.486022 72:5.043102 73:0.05262986 74:13.93876 75:0.1323229 76:-0.162972 77:0.483568 78:0.4960984 79:0.5912539 80:-0.006958656 81:0.569963 82:0.2582743 83:0.4292303 84:-0.593428 85:0.7974011 86:-0.08889404 87:0.929969 88:0.8642203 89:0.9761477 90:-0.8697872 91:0.9975364 92:-0.8776323 93:1.283759 94:0.6065823 95:1.11833 96:1.262886 97:1.378831 98:2.145016 99:0.02147953 100:0.003990212 101:0.06399799 102:0.0296395 103:0.0660157 104:-0.1699502 105:0.2178997 106:-0.1005912 107:0.1475788 108:0.02896854 109:0.2916961 110:0.03145011 111:0.3693793 112:-0.2600122 113:0.6141554 114:-0.0372084 115:0.1642121 116:0.2008421 117:0.2749479 118:0.2855869 119:0.5311819 120:0.1482938 121:0.4846079 122:-0.2523609 123:0.9792491 124:-0.0954151 125:0.008831874 126:0.004048477 127:0.02727914 128:0.3436893 129:1.833032 130:-6.938043 133:3.084233e-05 134:2.983946e-05 135:0.00187752 136:0.002147537 
0 0 0.0087013104065308614 0 1:131 2:-3.483757 3:9.52414 4:-3.771157 5:20.79607 6:24.88726 7:12.9929 8:10.55948 9:15.85249 10:20.11382 11:16.11923 12:8.198189 13:0.7482598 14:13.73113 15:0.7403972 16:-0.3584966 17:-2.050629 18:-1.08874 19:2.465357 20:1.518177 21:1.079791 22:-1.264028 23:-1.83083 24:-0.2448674 25:2.29799 26:-0.1860223 27:0.004222584 28:-0.2487288 29:-0.7779775 30:0.6686694 31:0.4620962 32:-0.1998768 33:-0.08010986 34:-0.9476327 35:-0.06131218 36:1.041376 37:0.004477764 38:-0.4850404 39:0.4364296 40:0.01033563 41:0.3758127 42:-7.332158 44:6.83318e-05 45:0.005123527 49:1.207386 50:-4.333226 51:1.996555 52:10.34326 53:3.618339 54:-0.8692428 55:1.834114 56:22.28321 57:4.452803 58:21.31389 59:4.549654 60:10.20051 61:3.801353 62:9.863225 63:3.266476 64:17.94397 65:4.4716 66:21.68669 67:0.3914234 68:16.41091 69:3.885061 70:5.600423 71:2.052985 72:0.6911372 73:0.02957756 74:13.71997 75:0.4190015 76:0.5945479 77:1.338079 78:0.5545984 79:1.022741 80:-1.839884 81:0.6800882 82:-1.111504 83:0.9191769 84:1.436641 85:0.804662 86:1.181973 87:1.540286 88:1.209476 89:0.6474088 90:-0.7984138 91:1.587583 92:-1.588017 93:0.193591 94:-0.04676294 95:0.9415687 96:1.366917 97:0.802483 98:-0.3630511 99:0.01801589 100:-0.008205757 101:0.2068934 102:-0.09178424 103:0.4254622 104:-0.4661106 105:0.5152661 106:0.2642616 107:0.09306788 108:0.3497669 109:0.7048798 110:0.01906992 111:0.4292138 112:-0.07209969 113:0.5431737 114:-0.3839684 115:0.3901424 116:-0.06866531 117:0.5091999 118:0.5081394 119:0.09685555 120:-0.01196691 121:0.8376253 122:0.0626711 123:0.3327469 124:0.1074865 125:0.006352415 126:0.008505575 127:0.0170378 128:0.3644299 129:1.461064 130:-8.110445 133:7.502039e-05 134:8.597993e-05 135:0.002693976 136:0.003357649 
2 0 0 0 1:172 2:1.209843 3:8.189745 4:6.804354 5:16.2386 6:8.937461 7:11.22992 8:13.57944 9:11.35295 10:9.011681 11:10.99844 12:1.021335 13:-7.551502 14:14.06802 15:-0.05937232 16:-1.073823 17:0.8989193 18:0.4922975 19:1.045761 20:-1.145289 21:1.843868 22:1.556356 23:-2.827271 24:1.141477 25:-1.163643 26:-1.709728 27:-0.007115173 28:-0.1302595 29:0.1797178 30:-0.0975379 31:-0.1742445 32:-0.05647058 33:0.3007943 34:-0.6082004 35:-0.5654664 36:0.7193106 37:-0.3744845 38:0.288129 39:0.09628879 40:-0.01319295 41:0.4066982 42:-5.412098 44:4.021097e-05 45:0.001188288 49:0.8850386 50:1.495205 51:2.027035 52:9.765944 53:1.47476 54:5.614785 55:1.146842 56:15.45872 57:2.589499 58:7.178194 59:2.54295 60:12.2433 61:3.685623 62:11.71196 63:2.555017 64:9.56525 65:5.507753 66:11.85771 67:2.813541 68:9.930025 69:1.97739 70:2.515577 71:3.087513 72:-5.07632 73:0.04105482 74:14.08497 75:0.2481118 76:0.034829 77:0.3957224 78:-0.7719532 79:0.3713793 80:0.517952 81:0.2767768 82:0.4980514 83:0.4604985 84:0.6897649 85:0.6148146 86:-0.6251961 87:1.095529 88:1.256295 89:0.8972654 90:1.274285 91:1.473793 92:-1.668449 93:0.7583279 94:0.672823 95:0.5046387 96:-0.7560215 97:0.6576499 98:-0.9615003 99:0.02287525 100:0.008350849 101:0.1015733 102:-0.07035045 103:0.25061 104:0.06518592 105:0.3205717 106:0.03609898 107:0.2192312 108:-0.005188274 109:0.2580484 110:-0.009692291 111:0.4440863 112:-0.0004963577 113:0.5800484 114:-0.1775519 115:0.3602501 116:-0.2537803 117:0.7044623 118:0.2867648 119:0.6470124 120:0.08258216 121:0.2200976 122:0.1660288 123:0.6916921 124:-0.2035778 125:0.01023267 126:-0.001667692 127:0.02416 128:0.4019769 129:1.128285 130:-5.461027 133:3.513075e-05 134:2.641136e-05 135:0.001085023 136:0.0001994573 
1.9001088486075843 2 2 2 1:157 2:-8.098976 3:13.70583 4:5.419841 5:27.44114 6:11.00586 7:10.97927 8:17.7757 9:8.999355 10:15.13253 11:15.10669 12:15.92313 13:10.09135 14:14.07169 15:-0.2084045 16:0.3927724 17:0.4514776 18:-0.3533846 19:0.8946326 20:0.03550224 21:0.7402058 22:-1.006214 23:-1.076154 24:-1.058043 25:1.06241 26:2.135969 27:0.00633831 28:-0.0426539 29:0.01813639 30:-0.267094 31:0.2003067 32:-0.05771695 33:-0.131364 34:0.1532996 35:0.669523 36:-0.2072873 37:-0.3996507 38:-0.04751172 39:-0.2877216 40:-0.008448191 41:0.427788 42:-2.908817 44:4.837719e-06 45:0.002502829 49:0.5133218 50:-7.720279 51:1.622868 52:12.86971 53:0.8154395 54:4.769511 55:0.5416356 56:27.87588 57:1.597883 58:9.810383 59:0.4786508 60:11.00032 61:1.578933 62:16.68362 63:2.242649 64:9.993279 65:1.842801 66:16.5961 67:1.893379 68:16.61835 69:2.325345 70:14.25418 71:4.048312 72:7.782571 73:0.01365232 74:14.06566 75:0.1819004 76:-0.06557578 77:0.2925846 78:0.329422 79:0.4223563 80:0.5886222 81:0.27437 82:-0.3581557 83:0.548471 84:0.4120001 85:0.2620212 86:0.1402585 87:0.4528319 88:0.2804851 89:1.036965 90:-1.057836 91:0.5944329 92:-0.3219253 93:0.9253041 94:0.05380394 95:0.4500012 96:0.6797493 97:0.9360409 98:0.9253357 99:0.01324219 100:0.01083963 101:0.1001307 102:-0.03460237 103:0.1995251 104:0.06068064 105:0.3938658 106:0.06230603 107:0.08096758 108:0.1897377 109:0.3646541 110:0.07650367 111:0.1376877 112:-0.1555487 113:0.2409976 114:-0.03915726 115:0.3948214 116:0.2860454 117:0.2512371 118:-0.01915248 119:0.3066415 120:-0.1554452 121:0.2039215 122:-0.09993249 123:0.3897716 124:-0.1808994 125:0.003645496 126:-0.005643005 127:0.009540646 128:0.4286467 129:1.129325 130:-3.282872 133:5.078878e-05 134:2.849557e-05 135:0.002978705 136:0.002741585 
2 0 2 2 1:176 2:-2.763079 3:11.06652 4:10.43714 5:32.2803 6:7.892169 7:4.07474 8:14.16239 9:16.72486 10:22.16179 11:10.3682 12:14.46976 13:7.436647 14:14.6078 15:0.2553521 16:-0.5651587 17:0.9121394 18:0.4450603 19:-1.767717 20:-1.593021 21:-2.896881 22:1.693915 23:1.148128 24:-1.103194 25:1.563269 26:1.397959 27:-0.01526232 28:-0.1186675 29:0.1047077 30:0.2244708 31:-0.03091227 32:-0.05396677 33:0.406478 34:0.3270429 35:-0.4513013 36:-0.1024784 37:0.7805248 38:-0.383023 39:-0.6302079 40:0.002047176 41:0.4991763 42:-0.03294704 44:-3.329107e-05 45:-0.001157605 49:0.9587991 50:-2.918216 51:0.9818762 52:11.86526 53:1.703355 54:9.107457 55:0.9531434 56:31.81238 57:3.033229 58:9.881079 59:2.942596 60:6.405281 61:5.720824 62:18.49929 63:3.160294 64:14.2292 65:1.865785 66:20.78099 67:3.893316 68:11.04995 69:2.954302 70:12.73231 71:2.285072 72:5.589726 73:0.03267983 74:14.63138 75:0.3000967 76:0.1664672 77:0.2875988 78:-0.341518 79:0.597231 80:0.1941918 81:0.2563385 82:0.07644261 83:0.6971723 84:-0.4654561 85:0.7006621 86:-1.31243 87:1.159277 88:-2.039673 89:0.7642889 90:1.418989 91:0.3853554 92:0.520138 93:1.257998 94:-0.9651791 95:0.6571943 96:0.8145968 97:1.028122 98:1.425625 99:0.006820417 100:-0.01058136 101:0.1361368 102:-0.01714594 103:0.1091033 104:0.02803005 105:0.3122416 106:0.179528 107:0.2101165 108:0.1189613 109:0.4485823 110:-0.1407672 111:0.3349876 112:0.1960558 113:0.8071011 114:0.06203211 115:0.5224038 116:-0.09315372 117:0.2841204 118:0.002386027 119:0.5905726 120:0.1696644 121:0.08366374 122:-0.339764 123:0.5358627 124:-0.1860474 125:0.00260572 126:0.001133438 127:0.02359189 128:0.5118775 129:0.8057383 130:0.4059827 133:2.968692e-05 134:-2.38779e-05 135:0.001201885 136:-0.0008032547 
0 2 2 0 1:157 2:-6.122916 3:16.45894 4:12.84313 5:26.79753 6:14.87795 7:19.03658 8:16.88629 9:14.22485 10:17.55134 11:18.31019 12:9.419998 13:-6.621179 14:14.18273 15:-0.177828 16:0.4626141 17:-0.1357731 18:-0.9515429 19:1.216672 20:0.8176547 21:0.4053985 22:0.4933369 23:-0.8106107 24:0.9584902 25:0.4866738 26:-1.025352 27:0.02893114 28:0.102877 29:-0.02566517 30:-0.1102672 31:0.2726215 32:-0.4887233 33:-0.02426034 34:0.7365031 35:-0.1825666 36:-0.5760657 37:0.002359373 38:0.6057772 39:0.2796308 40:-0.003181229 41:0.4648751 42:-2.369292 44:9.137259e-05 45:0.002198496 49:0.4027639 50:-5.943056 51:0.7710744 52:15.91176 53:1.376138 54:13.27394 55:2.667944 56:27.57156 57:2.019457 58:13.23812 59:1.435532 60:17.89355 61:1.638318 62:16.7909 63:1.474372 64:13.79895 65:3.193127 66:17.96192 67:4.719096 68:16.13222 69:1.844614 70:8.465244 71:1.631624 72:-5.331905 73:0.04954317 74:14.14268 75:0.1672056 76:-0.1670382 77:0.1559433 78:0.1708439 79:0.3282602 80:-0.1301465 81:0.6267802 82:-0.4714078 83:0.8342956 84:1.165666 85:0.5854392 86:0.5582122 87:1.257146 88:-0.9000507 89:0.3716936 90:0.2637077 91:1.197657 92:0.7140014 93:0.7662108 94:0.9476038 95:1.108735 96:-0.4037186 97:0.5349662 98:-0.7915644 99:0.009889727 100:0.01790873 101:0.03274663 102:0.08113007 103:0.2866238 104:0.1359147 105:0.1445124 106:-0.08696723 107:0.2969242 108:0.05218532 109:0.1817799 110:-0.3612116 111:0.4128368 112:0.1079388 113:0.359274 114:0.5399169 115:0.3213312 116:0.09165451 117:0.2130273 118:-0.2052787 119:0.5460148 120:0.1655823 121:0.3083728 122:0.2683517 123:0.5826492 124:-0.1361248 125:0.02143287 126:0.009722359 127:0.03181123 128:0.4399053 129:0.8584162 130:-3.00393 133:3.252403e-05 134:5.852716e-05 135:0.001546473 136:0.002244551 
2 2 2 2 1:169 2:-4.161989 3:13.57895 4:11.47505 5:30.66506 6:9.9722 7:15.61208 8:15.93989 9:12.05451 10:20.23822 11:19.72354 12:-1.202582 13:0.2328523 14:14.03322 15:-0.2510636 16:-0.06963783 17:1.046414 18:0.2054641 19:-1.110606 20:0.295517 21:-2.573177 22:-2.421065 23:2.339816 24:5.251517 25:-2.882981 26:-3.569862 27:-0.005988502 28:0.06572095 29:-0.002935116 30:-0.06034975 31:-0.1654243 32:-0.618897 33:-0.5069977 34:0.3412251 35:0.2061039 36:-0.1367504 37:-0.29647 38:-0.09278288 39:-0.08031377 40:-0.007255402 41:0.3783772 42:-6.227098 44:-5.596999e-05 45:-0.00271915 49:0.7822666 50:-3.94894 51:0.7118857 52:13.53702 53:2.643696 54:9.71118 55:1.315221 56:30.63577 57:4.469922 58:12.20689 59:0.8389975 60:15.24026 61:4.041969 62:19.21386 63:4.158254 64:15.42266 65:3.998029 66:16.98448 67:8.361649 68:12.9919 69:5.182505 70:2.937241 71:5.711293 72:4.517509 73:0.02985719 74:14.04648 75:0.1566382 76:-0.08530741 77:0.1975959 78:0.04262955 79:0.4616031 80:0.7178898 81:0.3912415 82:0.1435085 83:1.361875 84:-0.2575529 85:0.7716739 86:0.6227689 87:0.8342981 88:-1.435727 89:1.326086 90:-1.571316 91:0.8550894 92:1.260382 93:2.071709 94:2.655735 95:1.253484 96:-1.347185 97:1.56276 98:-1.288103 99:0.01504255 100:0.004422989 101:0.0857225 102:0.01027111 103:0.09116477 104:-0.02823087 105:0.3368166 106:0.04693961 107:0.2060069 108:-0.003896355 109:0.6410342 110:-0.4279355 111:0.2416475 112:-0.2093717 113:0.5561422 114:0.06127996 115:0.8116488 116:-0.02073297 117:0.7189275 118:0.1069657 119:1.620158 120:0.2339115 121:0.79307 122:-0.1365246 123:1.12417 124:-0.3351679 125:0.009616061 126:0.002723139 127:0.0168183 128:0.392066 129:0.9527919 130:-5.48572 133:2.3958e-05 134:-2.320924e-05 135:0.001536751 136:-0.001194027 
2 2 2 2 1:165 2:-10.82557 3:23.49748 4:-7.8952 5:15.06315 6:1.18597 7:19.28363 8:29.17021 9:18.50932 10:2.229805 11:9.121576 12:2.524211 13:-5.520155 14:14.57464 15:-4.689458 16:5.052303 17:-1.89609 18:5.217421 19:-1.35656 20:-4.032571 21:0.6078335 22:-0.8507654 23:-3.722037 24:1.012557 25:-2.568202 26:-2.824134 27:0.03724232 28:0.8791901 29:-2.028136 30:0.09968942 31:-2.733266 32:-0.3806973 33:0.5882763 34:0.4686267 35:0.7951829 36:0.8881403 37:-0.5175276 38:1.404725 39:1.515187 40:0.01147842 41:0.08849812 42:-25.01276 44:-0.0002991836 45:-0.02175328 48:-0.007 49:7.900633 50:-4.391539 51:8.166058 52:17.01469 53:3.598288 54:-5.053777 55:8.184354 56:8.960607 57:2.316332 58:3.068038 59:6.404513 60:24.48659 61:1.097663 62:28.28851 63:1.356481 64:19.33138 65:6.221139 66:7.30408 67:1.966895 68:8.128831 69:4.235094 70:5.70909 71:4.519232 72:-2.00185 73:0.06855533 74:14.53526 75:1.756967 76:-3.278172 77:2.943898 78:4.486307 79:0.7200155 80:-1.059773 81:3.94294 82:5.411533 83:0.9881073 84:-0.101288 85:1.420396 86:-2.511358 87:1.019077 88:-0.2755445 89:1.307425 90:-1.388528 91:1.641857 92:-2.871949 93:0.7492747 94:0.892329 95:2.003563 96:-2.587254 97:2.13114 98:-2.918755 99:0.04216758 100:0.001405143 101:1.165603 102:0.2818444 103:1.107715 104:-0.9890082 105:0.4449672 106:0.03798044 107:1.448043 108:-1.191911 109:0.3575514 110:-0.1576293 111:1.090379 112:0.065525 113:0.6856945 114:0.592999 115:0.688767 116:0.1912847 117:1.20525 118:0.1535868 119:0.1758491 120:-0.5105698 121:0.7606161 122:0.566736 123:0.8530938 124:0.5913657 125:0.03183749 126:0.02181727 127:0.08694614 128:0.1593312 129:6.653844 130:-19.6753 133:0.0001785058 134:-0.0002810126 135:0.01067257 136:-0.01886326 139:0.014 140:0.007 141:0.004154516 142:-0.0048 
2 2 0 2 1:191 2:2.429558 3:8.425184 4:7.550302 5:31.14171 6:13.57419 7:7.533781 8:19.18187 9:11.3938 10:9.576089 11:7.495813 12:1.508837 13:-1.748137 14:14.28571 15:0.6232204 16:-0.2643379 17:-0.7201136 18:0.3917747 19:0.9067723 20:-1.325104 21:-1.406445 22:1.338897 23:-2.079494 24:-0.5454227 25:0.4805825 26:1.803069 27:-0.01818676 28:-0.04839608 29:0.0334864 30:0.5134996 31:-0.1047307 32:-0.03391023 33:-0.06432953 34:-0.1352207 35:-0.0474763 36:0.006056617 37:0.5667437 38:-0.08030134 39:-0.1861978 40:0.006113482 41:0.490657 42:-1.806024 44:0.0001069171 45:0.003538541 49:1.121201 50:1.528555 51:0.5886616 52:8.845236 53:1.478228 54:8.31999 55:0.9053739 56:30.50198 57:1.632954 58:12.64323 59:4.95427 60:10.13953 61:2.264879 62:21.02422 63:3.007986 64:9.270222 65:3.331898 66:12.22171 67:1.183955 68:8.03415 69:2.634218 70:1.46054 71:2.942437 72:-3.869586 73:0.03038598 74:14.31044 75:0.2175235 76:0.3461492 77:0.1057535 78:-0.190706 79:0.7572114 80:-0.7904998 81:0.3178781 82:0.2880289 83:0.3586915 84:0.242921 85:0.9301718 86:-1.071972 87:0.6945013 88:-0.4943553 89:0.5850446 90:0.8618723 91:0.8488893 92:-0.8628683 93:1.232424 94:-0.6198378 95:0.8246758 96:0.09430128 97:0.6802866 98:0.8838834 99:0.00951935 100:-0.01642012 101:0.1335948 102:-0.02050084 103:0.04622021 104:0.05490896 105:0.2278703 106:0.2273881 107:0.1585457 108:-0.2019161 109:0.1289319 110:-8.947104e-05 111:0.4146179 112:0.01824539 113:0.478088 114:-0.1992654 115:0.5423415 116:0.1458386 117:0.5684844 118:-0.09143534 119:0.2670022 120:0.2876073 121:0.4941734 122:0.2177859 123:0.6073647 124:0.1067679 125:0.002462755 126:0.004236749 127:0.03617842 128:0.4611358 129:1.191601 130:-2.778918 133:4.845263e-05 134:4.010045e-05 135:0.001575805 136:0.00141147 
0 0 0.076227622817367474 1.0807935396187955 1:191 2:-4.309543 3:4.534526 4:8.688358 5:25.60199 6:14.93349 7:5.772368 8:6.946381 9:7.282007 10:15.23363 11:11.75109 12:-0.6188879 13:-5.733108 14:13.63388 15:-0.4693659 16:-0.7645864 17:0.6857604 18:-1.214712 19:2.180432 20:-0.1035381 21:0.4387549 22:-1.115019 23:1.847391 24:-1.952896 25:-2.820374 26:2.176404 27:0.01365891 28:0.05047277 29:0.07272998 30:-0.008639585 31:-0.09238373 32:-0.5181487 33:-0.6057376 34:0.4903524 35:-0.2140799 36:0.5498966 37:-0.06483443 38:0.4103673 39:0.3560639 40:-0.0125359 41:0.3445743 42:-7.648654 44:-9.147522e-06 45:-0.0006545575 49:0.7636356 50:-3.686049 51:1.374228 52:5.636455 53:1.173468 54:8.004106 55:2.066354 56:27.28777 57:4.581223 58:11.56926 59:4.437213 60:6.801159 61:1.068515 62:6.554979 63:1.908526 64:8.826525 65:3.170998 66:12.66936 67:3.304359 68:13.96792 69:4.57411 70:2.833827 71:3.954616 72:-8.805707 73:0.02202845 74:13.61592 75:0.1508385 76:-0.2647825 77:0.336847 78:-0.483868 79:0.3339179 80:0.2609687 81:0.5180556 82:-0.4118082 83:0.9440145 84:1.833789 85:1.238152 86:0.03645384 87:0.8546091 88:-0.5493863 89:0.6392924 90:-0.2532598 91:1.347656 92:0.2511674 93:0.804844 94:-0.5138148 95:1.185213 96:-1.624831 97:1.223045 98:0.7628554 99:0.01820265 100:0.02150139 101:0.1147682 102:0.00169629 103:0.3008879 104:-0.05481636 105:0.1378539 106:-0.006836935 107:0.2638171 108:-0.06071521 109:0.4151235 110:-0.2854555 111:0.4752997 112:-0.3029375 113:0.203596 114:0.2252043 115:0.2445542 116:-0.07440458 117:0.7243515 118:0.4729972 119:0.5350807 120:-0.1624819 121:0.8501737 122:0.01948862 123:0.7479513 124:0.3482635 125:0.003547564 126:-0.007582823 127:0.01095965 128:0.3449861 129:0.5813305 130:-7.574653 133:8.819586e-06 134:4.664179e-06 135:0.001025735 136:0.0007536016 
0 2 2 2 1:165 2:-7.721777 3:8.456161 4:1.847507 5:25.62948 6:16.66438 7:8.216484 8:15.82707 9:16.38432 10:3.074857 11:6.656596 12:13.11423 13:3.906011 14:13.52067 15:-0.1396865 16:-0.7580878 17:0.3385324 18:0.617734 19:0.3132404 20:0.6916715 21:0.2966295 22:0.729443 23:-2.061031 24:-2.997824 25:0.1735238 26:0.1516585 27:-0.08569746 28:-0.03261301 29:0.110774 30:0.03053283 31:-0.05340881 32:-0.003221408 33:-0.1962277 34:-0.5946527 35:-0.9187714 36:0.6609335 37:0.4689172 38:-0.02242685 39:0.5308368 40:0.0004753208 41:0.2835627 42:-11.19269 44:-0.0001835974 45:-0.01006581 49:0.4025326 50:-7.618671 51:1.611016 52:9.563371 53:1.173473 54:1.776855 55:2.771393 56:24.31457 57:2.301641 58:15.69661 59:2.462137 60:7.807915 61:0.6436698 62:15.52842 63:3.00579 64:15.96739 65:3.466752 66:5.618625 67:5.27902 68:9.976394 69:1.132959 70:12.99912 71:0.2866477 72:3.683286 73:0.1370626 74:13.62358 75:0.1072824 76:0.02520536 77:0.2891334 78:-0.6238025 79:0.2238709 80:0.01493474 81:0.4413602 82:0.6208039 83:0.4283064 84:0.4302524 85:0.6314338 86:0.3089677 87:0.9002472 88:0.7324576 89:1.442789 90:1.05117 91:0.9954761 92:-1.478315 93:1.13067 94:-1.471019 95:0.1966355 96:-0.1222741 97:0.9137555 98:-0.6471961 99:0.03789213 100:-0.034613 101:0.02202249 102:-0.01024383 103:0.1675198 104:0.05072796 105:0.1061917 106:0.05375503 107:0.2347112 108:0.02207794 109:0.2410773 110:0.04874505 111:0.4436429 112:0.1319528 113:0.2356521 114:-0.3110872 115:0.4456482 116:-0.399367 117:0.3764046 118:0.3481159 119:0.7915186 120:0.03824608 121:0.05544248 122:0.03143613 123:0.3805434 124:0.06062724 125:0.01937994 126:-0.000231085 127:0.05630335 128:0.3212032 129:3.227868 130:-9.191549 133:7.204306e-05 134:-8.97661e-05 135:0.003848721 136:-0.004687067 
2 0 2 2 1:183 2:2.874619 3:2.933676 4:-2.098539 5:20.6688 6:14.01867 7:21.2821 8:3.687028 9:-7.17317 10:24.13958 11:13.65697 12:15.40113 13:6.856357 14:14.22229 15:2.673051 16:-2.563552 17:1.92284 18:-1.964511 19:-0.7930077 20:-1.552211 21:-3.150824 22:-0.5364449 23:2.415684 24:0.01150859 25:1.110435 26:2.024224 27:-0.07489596 28:-0.6744136 29:0.7876413 30:-0.2891508 31:0.2934209 32:-0.1947144 33:-0.6117799 34:0.07988102 35:0.5281971 36:-0.05327567 37:0.2536305 38:-0.3370151 39:0.001912705 40:0.00309061 41:0.4704223 42:-1.184489 44:0.0003126043 45:0.01612205 49:4.900922 50:-0.03379345 51:5.124363 52:5.532444 53:4.685408 54:-3.666076 55:3.287624 56:23.02875 57:1.654934 58:15.18482 59:2.848758 60:23.51018 61:6.159806 62:8.447785 63:4.420856 64:-5.499959 65:3.834042 66:21.08407 67:1.975865 68:13.22973 69:6.02883 70:12.77407 71:5.373413 72:3.423088 73:0.1184453 74:14.3164 75:1.521244 76:1.709076 77:1.630948 78:-1.723051 79:1.208911 80:0.8104369 81:1.020109 82:-1.11564 83:0.6793496 84:-0.3095467 85:1.327032 86:0.006788564 87:1.234478 88:-1.742174 89:1.179457 90:-1.264097 91:0.885788 92:1.051252 93:0.7494032 94:0.07720852 95:1.000144 96:1.572668 97:1.052914 98:1.414099 99:0.0280536 100:-0.03499638 101:1.117687 102:0.03143839 103:1.050386 104:0.06766073 105:0.7433722 106:0.1105541 107:0.8314427 108:-0.1433879 109:0.2955029 110:-0.09755288 111:0.4942492 112:-0.2898734 113:0.8029539 114:-0.02773807 115:0.1314449 116:0.348938 117:0.3604802 118:-0.1651432 119:0.3580938 120:0.2647628 121:0.5386859 122:-0.006557196 123:0.8407789 124:0.2327917 125:0.01449424 126:0.002503842 127:0.1158061 128:0.4029021 129:6.102328 130:-4.629515 133:0.0001870744 134:0.0002217691 135:0.01043216 136:0.01217538 
0 2 2 2 1:172 2:2.673726 3:22.26144 4:11.52259 5:21.62311 6:-1.472238 7:0.1901412 8:-3.100075 9:-5.563861 10:-4.287682 11:2.89508 12:15.11893 13:-0.478343 14:13.93248 15:2.933912 16:2.761563 17:0.8021723 18:-2.874865 19:-2.600802 20:-3.13378 21:-5.930474 22:-6.620813 23:-4.932481 24:-1.870354 25:1.308084 26:1.937392 27:0.03117895 28:-0.6505671 29:-0.5580858 30:-0.3535708 31:0.5090749 32:0.6930748 33:0.7050877 34:1.486996 35:0.2825746 36:0.7608562 37:0.3360545 38:0.02887455 39:-0.137764 40:-0.01910491 41:0.326575 42:-7.92514 44:-0.0001177773 45:-0.003910394 49:4.753909 50:-1.181113 51:4.423417 52:18.70276 53:1.352203 54:10.53971 55:4.675525 56:25.02089 57:4.230895 58:1.971319 59:5.181476 60:4.418304 61:9.625241 62:4.362503 63:10.83537 64:3.25559 65:7.923884 66:1.874924 67:3.083962 68:5.108749 69:2.068891 70:13.57691 71:3.136805 72:-2.79863 73:0.07559124 74:13.9052 75:1.150687 76:2.039471 77:1.107023 78:1.864564 79:0.536725 80:0.7224174 81:1.063455 82:-1.644227 83:1.1515 84:-1.997777 85:1.216348 86:-2.220964 87:2.484915 88:-4.067004 89:2.458983 90:-3.236132 91:2.076451 92:-2.945909 93:0.7587842 94:-1.085349 95:0.8729447 96:0.5598748 97:1.104633 98:1.000981 99:0.03547315 100:0.03210146 101:0.6707539 102:-0.2649094 103:0.8174398 104:-0.1046716 105:0.3156489 106:-0.06896348 107:0.6690034 108:0.1682851 109:0.6836342 110:0.2367878 111:0.6439013 112:0.3073249 113:1.332386 114:0.6037928 115:1.526988 116:0.04276866 117:1.200548 118:0.287908 119:0.4827621 120:0.1118139 121:0.3706585 122:0.02024298 123:0.6489725 124:0.06355984 125:0.02367957 126:0.001419374 127:0.03520162 128:0.354528 129:1.171906 130:-7.003817 133:6.161368e-05 134:-1.928373e-05 135:0.003021821 136:0.0003124734 
2 2 2 2 1:165 2:-11.69189 3:17.15188 4:14.60477 5:26.84642 6:10.0471 7:14.43734 8:16.19847 9:10.10152 10:18.66848 11:12.56528 12:10.16842 13:-5.691307 14:13.53784 15:-0.3790258 16:-2.456306 17:-1.355102 18:-0.6057333 19:2.51258 20:2.7167 21:2.245338 22:3.446044 23:2.866428 24:-1.279473 25:-1.164454 26:-2.235465 27:0.07442484 28:0.6286365 29:0.8166835 30:0.2115434 31:-0.3252372 32:-0.4672989 33:-1.283581 34:-1.019176 35:0.1501877 36:-0.3032443 37:-0.7030691 38:-0.3010378 39:0.4745972 40:-0.02464415 41:0.2952766 42:-8.698929 44:-8.561435e-05 45:0.005174786 49:0.8008313 50:-11.26912 51:4.072791 52:19.98035 53:2.317241 54:16.01921 55:1.614854 56:27.27179 57:4.042137 58:6.86864 59:5.23273 60:11.61026 61:4.125327 62:13.78673 63:5.8417 64:5.370661 65:6.765331 66:16.08166 67:8.7423 68:15.90243 69:3.124369 70:12.12407 71:3.732466 72:-2.844189 73:0.1298942 74:13.45603 75:0.9527939 76:-0.8163606 77:1.225514 78:-1.820634 79:0.5838715 80:-0.7250101 81:0.6828538 82:0.3218521 83:0.9106816 84:1.554057 85:1.989744 86:2.352965 87:1.787348 88:2.029242 89:1.446954 90:1.478223 91:1.190117 92:0.7962017 93:1.900176 94:-0.8342496 95:0.8377159 96:-0.4172312 97:0.8478804 98:-1.33589 99:0.04109949 100:0.05492865 101:0.2825522 102:0.5197694 103:0.5307553 104:0.3541967 105:0.4091392 106:-0.001210147 107:0.3125685 108:-0.3055818 109:0.463954 110:-0.2172738 111:0.6943771 112:-0.586754 113:0.707268 114:-0.4471079 115:0.7728797 116:0.06217941 117:0.3845681 118:-0.2653852 119:1.125001 120:-0.7219452 121:0.5472389 122:-0.341399 123:0.8580408 124:-0.126758 125:0.03045364 126:-0.001720893 127:0.02749675 128:0.3123267 129:1.56233 130:-9.790416 133:3.228235e-05 134:-4.453833e-05 135:0.003008367 136:0.001875048 141:0.0007999999 142:-0.0004 
2 2 2 2 1:195 2:-2.715113 3:8.388199 4:4.39483 5:18.93342 6:17.85769 7:28.81813 8:15.65816 9:6.266806 10:13.80663 11:14.79064 12:7.782834 13:-10.436 14:14.00378 15:-0.5042372 16:-0.7898822 17:-2.121115 18:-3.000592 19:-0.9736799 20:3.758848 21:0.3833879 22:0.3312601 23:2.984337 24:2.90777 25:2.405163 26:-0.7949607 27:0.003054333 28:0.1584219 29:-0.1849943 30:-0.08326802 31:0.3682847 32:0.5777449 33:-0.693623 34:-0.3160842 35:0.08576573 36:0.7340705 37:0.05022133 38:0.2653472 39:0.375914 40:-0.006596823 41:0.4022462 42:-5.298163 44:9.322616e-05 45:0.003013917 49:0.9502272 50:-2.125272 51:1.454308 52:9.517675 53:3.380996 54:7.155395 55:4.832121 56:22.87668 57:2.659269 58:18.60793 59:6.902063 60:23.32127 61:2.640315 62:14.60505 63:1.048415 64:6.068305 65:4.762575 66:9.936664 67:5.694837 68:10.43134 69:4.178097 70:4.421239 71:1.396993 72:-9.335274 73:0.007983252 74:13.99866 75:0.3616051 76:-0.3638196 77:0.6583257 78:-0.2699816 79:0.9493073 80:-0.9454762 81:1.223746 82:-1.898431 83:0.9194055 84:-0.8542855 85:1.550982 86:2.777871 87:0.7988212 88:0.9742835 89:0.7729389 90:0.07644108 91:2.097866 92:0.5014107 93:1.400883 94:1.607428 95:1.124586 96:0.8588971 97:0.9868106 98:-0.5533866 99:0.0100414 100:0.01029972 101:0.2132693 102:0.02237542 103:0.3659588 104:-0.1856621 105:0.6231329 106:-0.1546966 107:1.042661 108:-0.1119235 109:0.7047429 110:-0.07629493 111:0.8766875 112:-0.3271802 113:0.3619325 114:-0.05752704 115:0.7374656 116:0.503662 117:1.031558 118:0.5630828 119:0.9698218 120:0.2054972 121:0.7845781 122:0.3538702 123:0.4441946 124:0.5368462 125:0.003246004 126:-0.002441458 127:0.03266555 128:0.3809085 129:0.9789152 130:-6.069167 133:3.94646e-05 134:4.004173e-05 135:0.001315792 136:0.001050062 
2 2 2 0 1:187 2:3.799254 3:11.16985 4:5.298749 5:16.83065 6:14.01644 7:18.12714 8:17.04947 9:17.1521 10:-1.873466 11:4.313557 12:12.78783 13:-1.352354 14:14.18911 15:0.4266572 16:0.4711308 17:0.8903424 18:-1.64153 19:-0.1507878 20:0.7019946 21:-1.411097 22:0.4834934 23:-2.09015 24:0.2244211 25:1.760742 26:1.683474 27:0.01282768 28:-0.2007458 29:-0.002972197 30:0.07829113 31:0.5563987 32:0.1429126 33:0.2027497 34:0.3764014 35:-0.2203491 36:0.5329809 37:-0.09765885 38:-0.6098571 39:-0.06174548 40:0.003820668 41:0.4468496 42:-3.730994 44:2.853666e-05 45:-0.0004183036 49:1.002132 50:3.425154 51:1.238238 52:10.37441 53:1.927913 54:3.90801 55:2.690068 56:18.7005 57:2.44675 58:13.64742 59:1.604649 60:17.00885 61:2.326729 62:18.68356 63:1.672088 64:16.83452 65:3.491282 66:0.9771533 67:4.642638 68:3.068911 69:3.000312 70:10.7415 71:3.076534 72:-3.193597 73:0.03262093 74:14.16786 75:0.3051708 76:0.3174024 77:0.2926131 78:0.3484733 79:0.6177009 80:0.5000377 81:0.848847 82:-1.253918 83:0.4818083 84:0.0277268 85:0.8328769 86:0.2934983 87:0.8183621 88:-1.043281 89:0.3727625 90:0.2444182 91:0.8993514 92:-1.596289 93:0.7078442 94:0.8210295 95:0.927847 96:1.318212 97:0.9093673 98:0.6384315 99:0.009959446 100:0.003150921 101:0.09618021 102:-0.1005826 103:0.1755104 104:0.01847726 105:0.4311852 106:0.1649768 107:0.3698051 108:0.2514377 109:0.1266791 110:0.06459333 111:0.2841506 112:0.05807371 113:0.6382899 114:-0.04091078 115:0.09434526 116:-0.1686562 117:0.4324368 118:0.2652043 119:0.2746751 120:0.01236415 121:0.2148704 122:-0.4261101 123:0.6176056 124:0.1600834 125:0.00309498 126:0.000114214 127:0.009477858 128:0.4402084 129:0.3149951 130:-3.6836 133:9.938602e-06 134:1.041135e-05 135:0.0009042427 136:-0.0005368678 
2 2 2 0 1:161 2:-4.153214 3:17.33394 4:6.595971 5:36.30547 6:27.73476 7:30.6297 8:16.56253 9:14.71615 10:25.57595 11:13.95073 12:3.398385 13:-6.211121 14:14.54562 15:0.3966701 16:-1.847521 17:-2.013738 18:1.103276 19:3.163537 20:5.772996 21:-1.232007 22:-0.5091701 23:1.777705 24:-1.114673 25:-0.6011645 26:-0.4340629 27:0.07846298 28:0.03709499 29:0.02800245 30:0.460638 31:0.2273193 32:-0.49821 33:-0.6170276 34:-0.450718 35:0.07947306 36:-0.4811732 37:0.138747 38:0.2594972 39:0.4426757 40:-0.01168666 41:0.4759837 42:-2.386816 44:5.823981e-05 45:0.001656733 49:1.011526 50:-4.75828 51:3.57703 52:20.01351 53:3.743263 54:9.518848 55:2.033051 56:34.96532 57:5.214671 58:23.5344 59:9.961144 60:22.55023 61:2.956879 62:18.5355 63:1.520837 64:15.7106 65:2.885612 66:23.37379 67:2.662324 68:14.89403 69:1.175966 70:4.328137 71:0.7903309 72:-5.660003 73:0.1242782 74:14.44904 75:0.2062884 76:0.2505084 77:0.7079278 78:-1.085854 79:0.8311684 80:-1.589553 81:0.7031496 82:0.007639919 83:1.141535 84:1.88171 85:2.131855 86:3.541487 87:1.131269 88:-0.290667 89:0.271679 90:-0.3994077 91:0.7868732 92:1.250894 93:0.7774157 94:-0.475318 95:0.4522563 96:-0.654798 97:0.6246158 98:-0.6526942 99:0.02792652 100:0.04532513 101:0.1383832 102:0.05258958 103:0.5197725 104:-0.08053537 105:0.432409 106:0.1745425 107:0.2665821 108:0.1115994 109:0.7338225 110:-0.1657089 111:1.51686 112:-0.1015254 113:0.6083115 114:-0.3903812 115:0.1086913 116:0.08137918 117:0.3078204 118:-0.2748509 119:0.7394001 120:-0.2795389 121:0.2542116 122:0.07040358 123:0.2306794 124:0.1852633 125:0.009898114 126:-0.01007328 127:0.01955162 128:0.4604463 129:0.9262663 130:-2.936978 133:4.172144e-05 134:1.292388e-05 135:0.001712739 136:0.0003655863 
2 2 2 2 1:176 2:0.5375719 3:11.75051 4:6.223347 5:23.78332 6:13.56868 7:24.49896 8:9.441776 9:6.657613 10:17.21113 11:19.53674 12:7.467193 13:-12.18573 14:14.36181 15:-0.0002652155 16:0.009390568 17:-1.504837 18:0.7662289 19:1.433587 20:1.633255 21:-2.822351 22:-3.012098 23:-0.4846017 24:0.169196 25:-0.6228089 26:-1.842354 27:-0.07016029 28:0.01061241 29:0.03261608 30:0.4271896 31:-0.01605699 32:-0.1798674 33:-1.07488 34:0.6820416 35:0.7846067 36:0.1509811 37:-0.8660079 38:0.2983572 39:0.9746994 40:0.009990072 41:0.5125866 42:0.5035689 44:7.865219e-05 45:0.003401133 49:0.6660083 50:0.6931893 51:0.4025572 52:11.62652 53:3.214302 54:7.669147 55:1.218079 56:22.78913 57:2.316692 58:11.71422 59:2.647605 60:22.39445 61:4.541258 62:13.0275 63:4.981877 64:10.19079 65:2.925877 66:17.15659 67:4.789724 68:20.26034 69:1.145131 70:8.349633 71:4.235662 72:-10.45544 73:0.1142961 74:14.44389 75:0.1357935 76:-0.07948887 77:0.1161271 78:-0.01156108 79:0.7323772 80:-0.8273919 81:0.263258 82:0.3475093 83:0.526879 84:0.8089515 85:1.553153 86:1.99603 87:1.182312 88:-1.958357 89:1.424398 90:-2.053959 91:0.5479597 92:-0.04744914 93:1.518007 94:0.478996 95:0.4580989 96:-0.7373685 97:1.56477 98:-1.590752 99:0.02931078 100:-0.03874895 101:0.0536124 102:0.02081744 103:0.084346 104:-0.03398433 105:0.2862389 106:0.2013731 107:0.2658099 108:0.08989181 109:0.4775562 110:0.05684664 111:0.5699637 112:-0.476301 113:0.9214227 114:0.06945735 115:0.9153905 116:0.1895043 117:0.2979421 118:-0.04253289 119:0.4589388 120:-0.4219248 121:0.2105311 122:0.101397 123:0.646586 124:0.410546 125:0.01955883 126:0.0009853039 127:0.0360137 128:0.4884811 129:1.546531 130:-0.537556 133:3.411314e-05 134:6.637381e-05 135:0.001615392 136:0.003150667 
0.25276510264375152 2 2 0.92576505510096918 1:172 2:-4.232068 3:4.104754 4:14.4118 5:32.42041 6:5.719782 7:16.28852 8:17.50962 9:1.929865 10:4.431046 11:-4.441584 12:-5.645771 13:-20.13747 14:13.23073 15:-0.5031279 16:-1.227765 17:0.7711487 18:0.3412731 19:0.9192068 20:2.795411 21:2.192261 22:0.2785159 23:-2.885667 24:-1.515117 25:-0.2573518 26:-4.187412 27:0.03433781 28:-0.03161823 29:0.1678176 30:0.02513472 31:-0.08001709 32:-0.08359131 33:-0.3500299 34:-0.2389827 35:0.1364308 36:0.5771825 37:0.1452956 38:-0.1232935 39:0.1493556 40:0.01401711 41:0.2728136 42:-10.01397 44:1.769599e-05 45:0.002428546 49:0.8203504 50:-3.609403 51:2.016017 52:5.675155 53:1.225514 54:13.5078 55:0.7023861 56:32.0693 57:2.318201 58:4.93804 59:4.508512 60:12.9128 61:3.719442 62:14.49267 63:3.531721 64:0.9059908 65:4.795702 66:8.345571 67:2.518072 68:-2.42041 69:1.598403 70:-4.983787 71:6.795625 72:-14.62788 73:0.06620321 74:13.18007 75:0.2721595 76:-0.1658665 77:0.4244553 78:-0.6542646 79:0.5268096 80:0.3236688 81:0.3481745 82:0.2217425 83:0.402235 84:0.2141638 85:0.9077903 86:1.397255 87:0.7232585 88:1.303466 89:0.6492764 90:0.487667 91:1.10847 92:-2.042156 93:0.5264403 94:-0.7747243 95:0.3413394 96:-0.1497215 97:1.604663 98:-1.986995 99:0.03211877 100:0.002751103 101:0.1751855 102:-0.06045073 103:0.2446576 104:0.07769932 105:0.3806524 106:0.1480221 107:0.07471643 108:-0.08134412 109:0.08189783 110:-0.07654014 111:0.5184897 112:-0.1422918 113:0.4064669 114:-0.1293627 115:0.4369347 116:0.2540112 117:0.8148866 118:0.1265942 119:0.256748 120:0.1133758 121:0.1786381 122:-0.1136681 123:1.009788 124:-0.01257741 125:0.01687135 126:0.01222472 127:0.005344351 128:0.2684957 129:0.7455691 130:-10.56213 133:1.353839e-05 134:3.583233e-06 135:0.001448056 136:0.001287122 
2 2 2 1.8624970964915977 1:180 2:-3.793582 3:14.36464 4:13.28346 5:27.49726 6:15.14815 7:25.65969 8:11.67073 9:6.211495 10:22.3827 11:18.25585 12:-5.059227 13:-6.418852 14:15.19783 15:0.2740506 16:-0.4154432 17:-0.6536226 18:-1.217147 19:-0.6036512 20:1.366682 21:-0.4240518 22:-0.8121042 23:1.4505 24:0.2066049 25:-2.759398 26:0.9801362 27:-0.05640745 28:0.01931595 29:-0.07485542 30:0.1370935 31:0.2613835 32:0.2842505 33:-0.5277191 34:0.3308201 35:0.337771 36:-0.3264109 37:-0.3515195 38:0.2291321 39:-0.1345072 40:0.01993077 41:0.6325659 42:5.432402 43:484.8485 44:-9.220792e-05 45:-0.004134491 46:0.03113511 49:0.5771597 50:-4.056075 51:0.8704597 52:14.99591 53:1.027044 54:14.05133 55:2.861174 56:28.57227 57:4.044586 58:15.0524 59:2.504443 60:23.64549 61:1.385225 62:12.4452 63:1.827587 64:7.495519 65:2.482474 66:20.55854 67:0.5801591 68:18.00492 69:4.588836 70:-1.313922 71:6.630534 72:-6.24386 73:0.09199754 74:15.26373 75:0.1282087 76:0.02664011 77:0.2413231 78:-0.1552035 79:0.2564419 80:-0.4215553 81:0.6653925 82:-0.5590294 83:0.7057143 84:-0.06294459 85:0.7960339 86:1.303763 87:0.5175467 88:-0.7249526 89:0.5500759 90:-0.867613 91:0.6008061 92:0.8819134 93:0.6181501 94:0.4967157 95:1.116252 96:-1.558941 97:1.007859 98:-0.3343389 99:0.0306713 100:-0.04504457 101:0.04066339 102:0.004743543 103:0.1961111 104:-0.106926 105:0.02232477 106:0.1680487 107:0.5274183 108:-0.05332515 109:0.3505391 110:0.05238805 111:0.4268071 112:-0.1767261 113:0.1074213 114:0.2752104 115:0.05643256 116:0.2577281 117:0.3180895 118:-0.1289203 119:0.1172638 120:-0.2524781 121:0.9746093 122:-0.1653557 123:0.4465824 124:0.1235996 125:0.01322773 126:0.008793955 127:0.02984999 128:0.6566193 129:1.34084 130:6.511504 131:12.75917 132:478.4689 133:3.703798e-05 134:-6.012647e-05 135:0.001670165 136:-0.002693825 137:0.03190621 138:0.03265151 
2 0 0 1.1456262560662958 1:183 2:3.545664 3:3.43583 4:2.170557 5:21.36701 6:14.19641 7:7.290679 8:12.72077 9:16.82747 10:8.913746 11:9.775349 12:10.27975 13:-2.908443 14:14.0759 15:-0.2187653 16:-1.009609 17:-0.7429911 18:-0.9466913 19:-0.06337494 20:-1.159427 21:-2.517614 22:2.818954 23:-0.2087694 24:-2.895667 25:0.8272952 26:0.9924473 27:-0.08901872 28:0.1040337 29:0.2204072 30:-0.2157353 31:0.1751949 32:0.2714397 33:0.03141 34:0.4095809 35:-0.1077793 36:0.2948804 37:-0.2615771 38:-0.2373985 39:0.6519834 40:0.008639669 41:0.4205382 42:-3.627251 44:-8.760933e-05 45:-0.001406468 49:1.311395 50:3.560235 51:1.669577 52:4.669489 53:1.890742 54:3.411907 55:2.289583 56:22.92438 57:0.2051948 58:14.29498 59:1.84152 60:8.757885 61:4.02863 62:15.87287 63:4.900821 64:12.87351 65:0.8060824 66:9.343504 67:5.811998 68:14.14249 69:1.702191 70:8.994323 71:4.846249 72:-5.119137 73:0.1580027 74:14.17252 75:0.2460493 76:-0.05310228 77:0.46784 78:-0.654022 79:0.6373286 80:-0.2619393 81:0.419157 82:-0.8028171 83:0.4997516 84:-0.3262939 85:0.4600856 86:-0.5232751 87:0.8723875 88:-1.472489 89:1.237964 90:1.604931 91:0.6920547 92:-0.6405888 93:1.737824 94:-1.434779 95:0.3953 96:0.7317269 97:1.435105 98:0.2361772 99:0.04462831 100:-0.04113434 101:0.05284289 102:0.05558664 103:0.3284178 104:0.01907142 105:0.3493305 106:-0.162791 107:0.2389519 108:0.06898885 109:0.1778301 110:0.02212772 111:0.4972002 112:-0.1771091 113:0.7736242 114:-0.0528171 115:0.9255854 116:0.1404079 117:0.245119 118:0.124375 119:0.9465632 120:-0.2073631 121:0.1240636 122:-0.1614435 123:0.6367363 124:0.3941737 125:0.03160246 126:-0.005362411 127:0.03346926 128:0.4370814 129:1.541129 130:-3.595365 133:5.449283e-05 134:-6.300236e-05 135:0.002377437 136:-0.001250875 
0 2 2 0 1:157 2:-5.526655 3:11.97321 4:13.21355 5:35.92778 6:16.51281 7:17.69778 8:16.57035 9:6.330452 10:19.46268 11:12.40313 12:9.360266 13:-0.1252866 14:14.0522 15:-0.1954773 16:0.08876049 17:1.075449 18:2.543318 19:-0.1421737 20:0.2446738 21:-0.5074424 22:-1.270282 23:-0.3643916 24:-2.654196 25:-1.561107 26:-2.019389 27:0.01229134 28:-0.112247 29:-0.1505756 30:-0.1747699 31:0.03705923 32:0.2414561 33:0.1972525 34:-0.09782422 35:0.2110333 36:0.3089104 37:0.4079506 38:-0.1042126 39:-0.09287971 40:-0.01000344 41:0.3651673 42:-5.820026 44:-5.447582e-05 45:-9.717916e-05 49:0.350382 50:-5.315187 51:0.1552787 52:11.84772 53:1.85673 54:11.7027 55:5.127918 56:32.10743 57:2.245734 58:16.27407 59:1.571523 60:17.62965 61:1.468587 62:17.53201 63:2.921164 64:8.474348 65:3.942056 66:20.69544 67:4.811722 68:16.20965 69:3.860828 70:11.95446 71:3.391119 72:2.617155 73:0.04957249 74:14.04615 75:0.2251757 76:0.0787752 77:0.2455992 78:0.237722 79:0.4713501 80:0.74729 81:1.073579 82:1.388491 83:0.5072682 84:-0.06172595 85:0.4032367 86:-0.3647075 87:0.4262917 88:-0.245199 89:0.5408815 90:-0.9252878 91:0.7269715 92:-1.064876 93:1.13804 94:-1.941779 95:0.8475552 96:-0.7748259 97:0.8110476 98:-0.817076 99:0.02019071 100:0.01343966 101:0.0695476 102:-0.06590624 103:0.08329713 104:-0.06626226 105:0.3283142 106:-0.04682892 107:0.7014006 108:0.100693 109:0.2195793 110:0.1391753 111:0.1267832 112:0.1962473 113:0.1640301 114:0.03691524 115:0.2027091 116:0.1897095 117:0.2950511 118:0.07376361 119:0.9114193 120:-0.02316287 121:0.6941278 122:-0.3680573 123:0.4557896 124:-0.08373416 125:0.01111069 126:0.0001646403 127:0.03862494 128:0.385187 129:1.166105 130:-5.559051 133:5.326963e-05 134:-1.790098e-05 135:0.001712716 136:0.000206626 
2 2 0 0 1:180 2:1.056461 3:8.678739 4:12.29548 5:24.71952 6:17.14458 7:18.5051 8:29.66606 9:18.65363 10:9.542722 11:12.66593 12:-2.49341 13:-6.651978 14:14.46826 15:-0.03709755 16:0.3393308 17:-0.1263196 18:-0.3651101 19:-1.205362 20:0.8963327 21:2.402764 22:1.052536 23:-0.7176079 24:-0.96271 25:-1.457847 26:-1.410376 27:-0.0533639 28:-0.2156394 29:-0.176157 30:-0.05374412 31:0.1061051 32:0.5880225 33:-0.003760962 34:0.03362957 35:0.1705539 36:-0.1290854 37:0.3504578 38:0.6612138 39:0.5767795 40:0.01875608 41:0.5116609 42:0.4665229 44:8.034144e-06 45:0.001449122 49:0.1188393 50:1.08805 51:1.021666 52:8.419652 53:0.3245324 54:12.49302 55:0.712842 56:25.24838 57:2.408798 58:18.36903 59:1.494587 60:17.28842 61:4.593145 62:26.10896 63:2.058794 64:17.06156 65:1.162187 66:10.49161 67:1.841527 68:13.68521 69:2.655338 70:-0.3735402 71:2.455195 72:-4.99393 73:0.09686035 74:14.52525 75:0.4096186 76:0.2331823 77:0.3027464 78:0.2491409 79:0.1289713 80:-0.01449653 81:0.1868841 82:-0.3324604 83:0.8828676 84:-0.9798139 85:0.3372841 86:0.3756652 87:0.9675145 88:1.195618 89:0.5770906 90:0.3208457 91:0.5280374 92:-0.2196489 93:0.5550703 94:-0.6906715 95:0.9640547 96:-1.536098 97:0.863354 98:-1.15313 99:0.03137689 100:-0.03986469 101:0.1082112 102:-0.09199283 103:0.1632356 104:-0.04746226 105:0.04868474 106:-0.041076 107:0.07554957 108:0.13221 109:0.3857493 110:0.1530703 111:0.1544743 112:-0.03288146 113:0.6401706 114:0.1056935 115:0.2956786 116:0.1163298 117:0.282101 118:-0.1207406 119:0.3148329 120:0.07139856 121:0.4217589 122:0.2677231 123:0.2568615 124:0.3309027 125:0.007626584 126:0.01208305 127:0.0139946 128:0.5067993 129:0.6050447 130:0.01721254 133:3.030829e-05 134:-9.525e-06 135:0.001090827 136:0.0002007678 
2 0 1.7655456927487834 2 1:195 2:-1.996428 3:15.32849 4:4.957591 5:20.49701 6:22.46502 7:20.06298 8:14.95829 9:5.884166 10:5.513509 11:13.98016 12:14.70394 13:7.974229 14:14.17597 15:0.2984772 16:-0.4175317 17:-1.067909 18:-1.403656 19:2.072815 20:3.517549 21:0.3081786 22:-3.565786 23:-1.664413 24:0.6163505 25:2.216444 26:0.8943309 27:0.04141531 28:0.1300368 29:-0.1746359 30:0.01663238 31:0.6393657 32:-0.03312139 33:-0.9171911 34:-0.4893991 35:0.4553489 36:0.7776861 37:0.7655685 38:-0.4088926 39:-0.390596 40:-0.01147954 41:0.3944497 42:-4.286458 44:2.013922e-05 45:0.003385868 49:0.7128965 50:-2.226834 51:1.456723 52:15.58493 53:2.102849 54:5.996703 55:2.569904 56:21.99073 57:3.577497 58:19.55019 59:5.713221 60:15.72476 61:1.823854 62:14.89258 63:5.652295 64:10.12142 65:2.97852 66:7.333767 67:1.361832 68:12.97359 69:3.651931 70:11.95714 71:3.098227 72:7.432083 73:0.06561238 74:14.12504 75:0.2804317 76:-0.1114471 77:0.499221 78:0.1776206 79:0.6853554 80:-0.3619969 81:1.048103 82:-1.244907 83:0.753364 84:0.9669869 85:1.692835 86:2.512894 87:0.9651407 88:0.58172 89:1.143779 90:-1.822247 91:1.210714 92:-1.298786 93:1.363527 94:-0.5773321 95:0.8346889 96:1.276652 97:0.7207564 98:0.490155 99:0.01984722 100:0.03122879 101:0.1773754 102:0.1710796 103:0.1165998 104:-0.09088464 105:0.370578 106:-0.0898654 107:0.3793321 108:0.3063528 109:0.3662876 110:-0.07339464 111:0.8794242 112:-0.3827799 113:0.4191253 114:-0.1162941 115:0.8055744 116:0.09068564 117:0.3492972 118:0.4024642 119:0.4950941 120:0.2504652 121:0.4473954 122:-0.1858107 123:0.1833847 124:-0.3260513 125:0.005801227 126:-0.00806864 127:0.009052488 128:0.3904152 129:1.191985 130:-5.096597 133:1.352284e-05 134:-2.86126e-06 135:0.001490298 136:0.0006978933 
0 2 2 0 1:172 2:-3.609658 3:18.79381 4:7.727934 5:32.63642 6:30.95481 7:13.80655 8:14.04335 9:17.60675 10:17.13797 11:5.868695 12:4.399197 13:1.635571 14:14.73804 15:-1.328586 16:-0.7464489 17:-1.023948 18:0.5181839 19:2.268199 20:-1.54346 21:-1.148758 22:2.22082 23:1.461191 24:-0.3899273 25:-1.16402 26:0.3060935 27:-0.03973532 28:0.5890882 29:0.6580829 30:-0.07216795 31:-0.9717664 32:-1.285833 33:0.2100617 34:-0.07431348 35:-0.954765 36:-0.5118979 37:-0.09423714 38:0.4860584 39:0.07188051 40:0.0001628686 41:0.5282029 42:1.129313 44:-6.190049e-05 45:-0.001396425 49:2.048671 50:-1.986223 51:1.429588 52:19.47242 53:2.154119 54:9.335448 55:2.31374 56:32.32349 57:3.835101 58:28.03066 59:4.267396 60:15.17235 61:2.981386 62:14.98104 63:3.730681 64:14.57841 65:2.226072 66:15.45598 67:0.6309617 68:6.377562 69:2.952136 70:6.275679 71:0.4971403 72:1.283813 73:0.0684705 74:14.79326 75:0.822727 76:-1.248818 77:0.9821575 78:-1.000062 79:0.4914071 80:-0.4307003 81:1.483499 82:1.083032 83:1.823189 84:2.339921 85:0.9941283 86:-0.4546599 87:0.8618817 88:-0.1611295 89:1.364895 90:2.022042 91:0.7621045 92:1.226873 93:0.2801884 94:-0.06316235 95:0.7786619 96:-1.414929 97:0.3656287 98:-0.03416988 99:0.01453962 100:-0.01898445 101:0.1898091 102:0.3488584 103:0.3226511 104:0.2630323 105:0.2225116 106:-0.001012835 107:0.4101061 108:-0.7561293 109:0.3618252 110:-0.8705087 111:0.4344967 112:0.02619154 113:0.2130242 114:0.009302417 115:0.3811485 116:-0.5311819 117:0.3451124 118:-0.2093094 119:0.08950935 120:-0.01689008 121:0.4700682 122:0.1261147 123:0.1496489 124:0.1606632 125:0.006364899 126:0.001805986 127:0.02149057 128:0.5417586 129:0.457771 130:1.452445 133:8.454195e-05 134:3.517178e-05 135:0.00346589 136:0.001896104 
2 0 2 2 1:183 2:-1.386721 3:15.42873 4:2.822761 5:17.46636 6:8.702344 7:12.89448 8:5.703728 9:14.71127 10:16.70097 11:14.28051 12:19.86456 13:9.325035 14:14.14136 15:-0.8539187 16:-1.45277 17:0.9332531 18:-0.5163107 19:-0.3559999 20:1.719563 21:-0.1118507 22:0.5312419 23:-0.673272 24:2.6968 25:5.562003 26:2.567075 27:0.08029032 28:-1.021469 29:0.03525865 30:0.8007727 31:0.003890629 32:0.9609567 33:-1.415522 34:0.4917353 35:1.403872 36:-0.1633878 37:-0.5459106 38:-1.27416 39:0.2317305 40:0.01801223 41:0.4445192 42:-4.346869 44:0.0001678777 45:0.006837026 49:1.336201 50:-0.3168753 51:2.779434 52:16.96066 53:2.029502 54:1.374745 55:1.355052 56:17.88557 57:0.6158398 58:9.202456 59:2.699185 60:10.93621 61:0.6662983 62:5.764644 63:0.9771909 64:14.20899 65:1.164152 66:17.54293 67:4.309419 68:10.82384 69:9.268365 70:13.26984 71:4.229383 72:5.871795 73:0.1531909 74:14.02349 75:1.909688 76:0.7847025 77:0.6257444 78:-0.4300397 79:1.478092 80:-0.3934126 81:0.4646786 82:-0.1210634 83:1.489101 84:-1.266598 85:2.070063 86:2.27442 87:0.7504519 88:-0.5579924 89:2.319702 90:-1.580574 91:0.432369 92:0.01946638 93:1.085778 94:1.820265 95:2.442237 96:3.539831 97:1.407041 98:0.9785773 99:0.05152626 100:0.02177424 101:0.7353396 102:-0.7931432 103:0.500653 104:-0.158166 105:0.5990052 106:0.5817345 107:0.07539495 108:0.13168 109:0.3260039 110:0.5851052 111:0.8503158 112:-0.4553143 113:0.1694352 114:0.2724194 115:0.6505414 116:0.9329978 117:0.2619948 118:-0.211379 119:0.710794 120:-0.1538083 121:1.901313 122:-0.05700916 123:0.7301029 124:0.1659113 125:0.02720982 126:0.01364056 127:0.0674412 128:0.3937939 129:2.632554 130:-6.375452 133:0.0001137449 134:0.0001809486 135:0.005803811 136:0.007714212 
1.9785181764483277 2 2 1.945140168319442 1:172 2:-5.748537 3:15.87776 4:15.49989 5:40.68468 6:16.57795 7:15.77226 8:23.85143 9:11.97098 10:28.21458 11:17.31776 12:4.228581 13:10.01948 14:16.11255 15:2.180346 16:0.353483 17:-2.581621 18:4.284126 19:-4.242037 20:-0.5530795 21:1.989147 22:-2.899876 23:3.27141 24:-1.852217 25:-4.349125 26:1.912387 27:-0.006890678 28:0.2882156 29:-0.05550334 30:-0.1713706 31:-0.02041657 32:0.3800629 33:0.4282881 34:-0.1696385 35:0.8018758 36:0.3924467 37:0.1084039 38:0.2541504 39:-0.6339363 40:-0.01440264 41:0.7538084 42:10.63213 44:0.0003581362 45:0.0159408 49:3.559149 50:-8.653646 51:0.7816961 52:15.26341 53:4.269882 54:18.98623 55:6.961689 56:35.06135 57:6.666557 58:22.02117 59:1.629831 60:16.3483 61:3.097915 62:21.32787 63:4.535719 64:15.67254 65:6.168169 66:23.4187 67:3.115225 68:19.34248 69:6.984187 70:9.922955 71:2.962209 72:7.603742 73:0.01983729 74:16.12455 75:1.08319 76:0.6039242 77:0.1793253 78:0.2415057 79:1.075936 80:-0.8958003 81:1.709413 82:1.845409 83:1.456761 84:-2.476155 85:1.060808 86:-0.7118621 87:0.6424288 88:1.089059 89:1.31097 90:-2.369038 91:1.675503 92:1.249041 93:0.6107406 94:-0.6972196 95:1.413093 96:-2.176734 97:1.044089 98:1.716565 99:0.0242462 100:0.01259976 101:0.6445028 102:0.2810789 103:0.2034433 104:0.06044165 105:0.6653978 106:-0.2086751 107:1.300711 108:0.3014962 109:1.077081 110:0.03927922 111:0.4436692 112:0.1046842 113:0.7938435 114:0.2334282 115:0.9297119 116:0.1515673 117:0.8946784 118:0.2538537 119:0.3516348 120:-0.01006344 121:1.006032 122:-0.03989356 123:0.4433263 124:-0.331367 125:0.00854669 126:-0.01090006 127:0.1151416 128:0.660306 129:5.206621 130:6.383227 131:191.0873 132:95.54366 133:0.0001542794 134:0.0001209499 135:0.006987229 136:0.00551639 
1.83055808590487 2 2 0.11465037719442629 1:172 2:-1.269548 3:17.58073 4:7.037605 5:22.33996 6:14.33117 7:11.03186 8:10.58875 9:10.20597 10:20.86227 11:21.41159 12:7.280124 13:0.7771912 14:14.28701 15:0.1200353 16:-0.8376415 17:-1.025484 18:1.179604 19:1.44942 20:-0.2946421 21:-1.111673 22:-2.98517 23:1.423204 24:5.608488 25:2.332946 26:-0.3088908 27:0.06558199 28:0.0174426 29:-0.1401889 30:-0.3194365 31:0.5213037 32:0.9349923 33:-0.06257854 34:0.2037802 35:0.1421338 36:-0.5534109 37:-0.07178187 38:-0.7225651 39:-1.825087 40:-0.01698673 41:0.4789506 42:-3.651063 44:0.0001314422 45:0.004613796 49:0.9982527 50:-1.555659 51:1.464272 52:18.42551 53:2.348493 54:8.603682 55:3.049951 56:20.34477 57:3.148624 58:12.02742 59:2.448055 60:11.83932 61:1.923547 62:12.14842 63:4.879675 64:14.00333 65:3.117904 66:19.44699 67:9.036515 68:14.15393 69:3.729379 70:4.461799 71:5.085916 72:2.203994 73:0.1277037 74:14.22024 75:0.1619859 76:0.2018936 77:0.6463471 78:-0.1698826 79:0.7708038 80:-0.312838 81:1.323386 82:0.2364279 83:2.130677 84:-0.1267761 85:0.5340805 86:-0.4624888 87:1.429527 88:-1.031608 89:1.266504 90:-1.358963 91:1.017144 92:1.035745 93:2.374664 94:2.473242 95:1.318787 96:1.846629 97:3.057454 98:1.460726 99:0.03434735 100:0.03952566 101:0.03845694 102:-0.00672131 103:0.5505666 104:-0.3575906 105:0.4072714 106:-0.2537354 107:0.5620456 108:0.3171825 109:1.241081 110:0.9963427 111:0.4062528 112:-0.2159503 113:0.84808 114:-0.2058795 115:0.8321934 116:-0.06497975 117:0.6153319 118:-0.05690952 119:1.701545 120:0.3283022 121:0.8459988 122:-0.1451194 123:0.9246948 124:-0.9419804 125:0.01149214 126:-0.009302271 127:0.04199691 128:0.4448647 129:1.509774 130:-4.883785 133:5.300971e-05 134:9.411386e-05 135:0.001694779 136:0.002909861 
2 0 0 0 1:161 2:0.4262114 3:0.3010063 4:12.25427 5:25.33972 6:14.78449 7:15.92197 8:29.61268 9:25.37693 10:15.42432 11:14.48737 12:9.432618 13:17.33278 14:14.21943 15:-0.4652103 16:0.3672922 17:1.033885 18:-0.4878983 19:-2.002667 20:0.5687424 21:1.599655 22:4.512794 23:3.237848 24:-0.2744564 25:-1.493721 26:0.3526851 27:0.04400549 28:0.05194864 29:-0.1923143 30:-0.1693045 31:-0.2240396 32:-0.1170801 33:0.6311652 34:-0.1565605 35:-0.5731694 36:-1.227196 37:-0.027419 38:0.8180875 39:0.2195717 40:-0.007205258 41:0.5017515 42:0.07006007 44:0.0002009124 45:0.009051898 49:0.7316691 50:1.00791 51:2.375783 52:0.3846329 53:1.607138 54:11.15799 55:1.301122 56:25.73129 57:3.825038 58:17.69833 59:2.570419 60:15.72814 61:2.845612 62:27.31535 63:7.352369 64:19.41617 65:7.698287 66:12.47599 67:0.8301606 68:14.67784 69:2.431999 70:11.1955 71:0.9130672 72:16.83906 73:0.07420627 74:14.16968 75:0.1561415 76:-0.2392861 77:0.4819336 78:0.03406839 79:0.5777625 80:0.4514025 81:1.021125 82:0.07063644 83:0.8701292 84:-0.9270487 85:1.567069 86:-0.7253127 87:0.7872776 88:0.9894481 89:1.694345 90:2.621057 91:2.203923 92:2.152538 93:0.5958501 94:0.1291149 95:1.212981 96:-1.45866 97:0.4451892 98:-0.2914658 99:0.01799767 100:0.02399651 101:0.07316739 102:0.04711847 103:0.170038 104:-0.08245227 105:0.1416308 106:-0.2466057 107:0.4457202 108:-0.2812093 109:0.5046185 110:-0.1051977 111:0.5585504 112:0.5452418 113:0.4776107 114:-0.04472512 115:1.159137 116:-0.1449531 117:1.181419 118:-0.3107915 119:0.283549 120:0.1322426 121:0.3572128 122:0.4221165 123:0.2303043 124:-0.05562294 125:0.007601537 126:-0.004322661 127:0.05520418 128:0.4589468 129:2.493125 130:-1.927175 133:8.27631e-05 134:0.0001278733 135:0.003486832 136:0.005688536 
2 1.7093079879051463 2 2 1:191 2:-7.182579 3:14.26272 4:12.82289 5:28.07447 6:13.86447 7:10.01226 8:17.11153 9:23.78354 10:21.32944 11:17.66417 12:4.072049 13:-6.469011 14:14.41782 15:0.4628824 16:0.07543302 17:0.3968288 18:-0.1324962 19:-0.1145359 20:-1.608706 21:-0.2415934 22:-0.07289675 23:0.7275261 24:1.400009 25:-1.268444 26:-3.948458 27:-0.01033955 28:0.02694448 29:0.09108458 30:0.06910817 31:-0.382657 32:-0.1122361 33:0.07292663 34:-0.2226662 35:-0.9477263 36:0.09854198 37:0.204002 38:0.49049 39:0.1625942 40:-0.008019047 41:0.4764389 42:-3.070155 44:-9.974801e-06 45:-0.002567512 49:0.7401553 50:-7.704307 51:0.6440225 52:14.0535 53:1.476541 54:12.57144 55:0.4081226 56:28.29623 57:2.704537 58:13.47002 59:2.784981 60:11.78989 61:2.861466 62:17.97591 63:0.8288229 64:23.99041 65:1.447057 66:20.20288 67:2.395871 68:16.08728 69:3.06579 70:5.144489 71:6.281939 72:-1.471684 73:0.02911166 74:14.43566 75:0.2114581 76:0.1377522 77:0.2001247 78:0.03287837 79:0.2913487 80:-0.1275821 81:0.6641116 82:0.3515094 83:0.4777656 84:0.5115709 85:0.5614167 86:-0.5176696 87:0.623023 88:-0.1548749 89:1.555587 90:0.9825955 91:0.38592 92:0.2451962 93:0.8155029 94:0.2170638 95:0.7798 96:-0.790255 97:1.538335 98:-1.864902 99:0.01601428 100:0.003948288 101:0.1348954 102:0.04566588 103:0.1083261 104:0.08355948 105:0.03695765 106:0.01565362 107:0.2207323 108:-0.194835 109:0.3254088 110:0.1478812 111:0.1979669 112:0.07548114 113:0.2743361 114:-0.07738321 115:0.408387 116:-0.5236966 117:0.2121822 118:0.06353836 119:0.2658713 120:0.008902769 121:0.2165992 122:0.316929 123:0.858465 124:0.06808958 125:0.005454355 126:-0.00123719 127:0.02588181 128:0.4843909 129:1.733202 130:-2.065501 133:4.795227e-05 134:1.506127e-05 135:0.002035111 136:-0.000932492 
0.4625270279644948 2 0.09328082966529766 0 1:169 2:-1.419175 3:12.10683 4:14.40463 5:35.13 6:18.78101 7:19.99828 8:22.1867 9:19.84742 10:10.58838 11:-7.774912 12:-5.474943 13:-4.262504 14:14.28835 15:-1.525127 16:-0.2550133 17:1.394968 18:1.453226 19:1.407056 20:2.894492 21:3.488071 22:4.034228 23:1.599247 24:-3.599518 25:-2.600137 26:-2.054319 27:-0.00431118 28:0.1772136 29:-0.6747136 30:-0.7983364 31:-0.05885271 32:0.2452029 33:-0.04440909 34:0.04144952 35:0.4739583 36:1.042524 37:0.75783 38:0.6257628 39:0.1488517 40:0.009927912 41:0.3730304 42:-5.192381 44:2.886446e-05 45:0.003789237 47:0.015 49:2.753798 50:0.7300419 51:1.842266 52:12.77248 53:3.159517 54:13.10768 55:2.397353 56:33.17619 57:2.858623 58:16.63377 59:5.006569 60:16.66661 61:5.490619 62:17.92882 63:7.287231 64:14.08924 65:4.771565 66:7.847512 67:6.814001 68:-3.701073 69:5.437776 70:-2.835197 71:5.356474 72:-2.568632 73:0.02581332 74:14.28865 75:0.5735514 76:-1.064764 77:1.142448 78:0.4535528 79:1.230886 80:1.281045 81:0.6092937 82:0.7943376 83:1.024311 84:0.5871596 85:1.249584 86:1.034526 87:1.321887 88:1.295805 89:1.979889 90:1.460962 91:2.072052 92:-0.06074692 93:1.556515 94:-1.872341 95:1.295262 96:-1.376834 97:1.110605 98:-0.5030296 99:0.01590507 100:-0.01134165 101:0.3575931 102:0.07184704 103:0.450954 104:-0.52178 105:0.2444641 106:-0.5635666 107:0.2489173 108:-0.1214506 109:0.6698442 110:0.3198451 111:0.9178244 112:0.2476436 113:0.8967574 114:0.2008529 115:1.139398 116:0.3903874 117:0.8127876 118:0.6224191 119:0.8450978 120:0.2492016 121:0.5739329 122:0.2644694 123:0.5004629 124:-0.01361832 125:0.004444032 126:0.00574963 127:0.01081194 128:0.3671484 129:1.20251 130:-6.171566 133:2.725722e-05 134:-4.283482e-06 135:0.001660007 136:0.00144731 140:0.015 141:0.001897366 142:0.0015 
0 2 2 0 1:169 2:-2.233896 3:24.1372 4:15.51991 5:28.30063 6:10.38673 7:12.84357 8:4.991185 9:10.16614 10:18.26923 11:-1.542186 12:-15.43765 13:-8.293188 14:14.06717 15:-0.2909323 16:1.761727 17:1.297886 18:-1.813619 19:-2.158653 20:0.79584 21:-0.701263 22:-0.5757506 23:1.194434 24:-2.163934 25:-4.798493 26:-0.6559144 27:-0.0845046 28:0.0678499 29:-0.4166574 30:-0.1430637 31:0.1113696 32:0.2908333 33:0.1953952 34:0.8549804 35:0.8189483 36:0.44357 37:0.5241414 38:-0.07939172 39:-0.3030844 40:0.008415051 41:0.3351738 42:-8.658786 44:-0.0001203391 45:-0.007407388 49:0.9974548 50:-2.055382 51:3.004233 52:21.68637 53:2.155849 54:13.76416 55:2.924017 56:30.47205 57:3.911368 58:13.51346 59:1.359788 60:11.74837 61:1.542611 62:5.614195 63:2.685688 64:11.4203 65:3.160474 66:16.27951 67:3.605483 68:1.397469 69:9.365113 70:-8.26251 71:4.323437 72:-6.56196 73:0.1338035 74:14.17425 75:0.1729484 76:-0.07844298 77:0.7333889 78:1.305095 79:0.4695265 80:0.7916378 81:0.7038733 82:-0.8330081 83:0.7554752 84:-1.342237 85:0.6360486 86:0.2093057 87:1.271731 88:-1.188425 89:1.295026 90:-1.589368 91:1.074968 92:0.2275508 93:0.8844239 94:-1.533179 95:2.034708 96:-2.50257 97:0.889755 98:-0.4413369 99:0.02858437 100:-0.04523779 101:0.08878748 102:-0.001097959 103:0.4295162 104:-0.1668076 105:0.4248954 106:0.04048889 107:0.5016397 108:-0.05896149 109:0.4125427 110:0.1932045 111:0.4698127 112:0.2901565 113:0.2901862 114:0.4898192 115:0.2023728 116:0.4746366 117:0.4617586 118:0.2711495 119:0.6603409 120:0.121704 121:1.416552 122:-0.2724717 123:0.3136647 124:-0.01490461 125:0.01691729 126:0.003832659 127:0.0364645 128:0.3642678 129:2.253945 130:-6.849719 133:6.200604e-05 134:-9.751147e-05 135:0.003241773 136:-0.005501791 
0 1.678183976607748 0.68730100036247932 0 1:169 2:9.789448 3:25.83408 4:6.847643 5:23.2923 6:22.04819 7:9.584563 8:-4.285418 9:5.280378 10:13.23158 11:-2.508552 12:-9.810944 13:-1.376101 14:14.52364 15:0.4383746 16:0.8072391 17:-2.362714 18:-0.0143066 19:-0.3122231 20:-1.978544 21:-1.830688 22:-0.02837218 23:-0.8490828 24:-0.8712665 25:-0.9745458 26:0.09919577 27:-0.07202367 28:-0.8839507 29:0.2193823 30:0.7158001 31:-0.4973777 32:1.174899 33:-1.432408 34:0.279026 35:1.619157 36:-0.9954976 37:0.1076943 38:-0.9011894 39:-0.3250817 40:0.02032248 41:0.4450417 42:-3.879086 44:1.397698e-05 45:-0.0004762041 49:0.8334756 50:9.117195 51:1.431247 52:24.67728 53:3.890246 54:9.555812 55:2.761159 56:23.88418 57:0.8851495 58:22.32287 59:3.954094 60:12.58716 61:3.044767 62:-1.859264 63:1.133534 64:5.183688 65:2.451968 66:14.68762 67:3.073047 68:-0.7700919 69:2.791462 70:-8.096889 71:2.398649 72:-2.07707 73:0.1293828 74:14.6262 75:1.375584 76:1.206381 77:0.7899017 78:0.1925907 79:1.15048 80:-1.710055 81:0.9305782 82:0.3009414 83:1.885316 84:-1.392532 85:2.845388 86:0.593185 87:0.638844 88:-0.9385769 89:2.736328 90:-1.646302 91:1.787515 92:0.5772058 93:0.5020126 94:-0.7877636 95:1.679978 96:0.4218306 97:0.7356628 98:0.8213626 99:0.03291147 100:-0.06221634 101:0.4895176 102:-0.2539358 103:0.4106708 104:0.2076338 105:0.9155352 106:0.07752262 107:0.2729685 108:-0.2619703 109:0.6568053 110:0.4951784 111:1.058429 112:-0.7992839 113:0.1397152 114:0.3395856 115:0.6875244 116:0.7909767 117:1.056705 118:-1.090791 119:0.6227704 120:-0.2347031 121:0.6086298 122:-0.4496946 123:0.2482808 124:-0.1153548 125:0.01533445 126:0.01006831 127:0.03024999 128:0.4478372 129:0.9321466 130:-3.577682 133:0.0002366759 134:0.0001656358 135:0.01246551 136:0.008276066 
0 0 0.96897971322758913 2 1:202 2:-1.446448 3:18.27238 4:16.58245 5:29.89568 6:9.610981 7:8.808264 8:7.753445 9:5.829651 10:17.71329 11:6.298425 12:2.53071 13:-0.8699565 14:14.37957 15:0.8496493 16:0.6352913 17:-0.2863383 18:1.233976 19:1.014869 20:-2.040469 21:-1.238258 22:-4.107468 23:-0.4192234 24:-1.550788 25:-0.1039979 26:-0.8730149 27:0.003485203 28:-0.02083818 29:-0.120844 30:-0.4199722 31:-0.04357839 32:-0.2181716 33:-0.02211138 34:0.8183676 35:0.5825655 36:-0.08028587 37:0.5410504 38:-0.04930079 39:0.3534356 40:-0.001204081 41:0.4429359 42:-3.713298 44:-1.05556e-05 45:-0.001491103 49:1.27414 50:-2.434347 51:1.737049 52:17.81883 53:0.5254452 54:16.90703 55:2.100103 56:28.19056 57:2.666879 58:8.718739 59:4.713513 60:10.57044 61:2.020945 62:9.116036 63:6.535467 64:10.70736 65:1.362683 66:17.88591 67:2.460165 68:8.303571 69:0.7637796 70:2.5027 71:1.789603 72:0.455406 73:0.0236419 74:14.3799 75:0.2868132 76:0.3739129 77:0.3401784 78:0.2391192 79:0.7045434 80:0.4537699 81:0.440813 82:0.6299916 83:0.604748 84:0.4199001 85:0.9324428 86:-0.3613429 87:1.184716 88:-1.452806 89:1.393495 90:-2.215479 91:0.4780015 92:0.1538754 93:0.8114967 94:-1.441033 95:0.1536454 96:0.1011705 97:0.818669 98:-1.061148 99:0.005388433 100:0.0004538155 101:0.09301265 102:-0.07584289 103:0.2787025 104:0.05744684 105:0.1853908 106:-0.2293631 107:0.2927512 108:0.001943485 109:0.2029983 110:-0.1282348 111:0.7159076 112:-0.3249311 113:0.3153723 114:0.4849593 115:1.162093 116:-0.02955613 117:0.1435435 118:-0.01562441 119:0.4889012 120:0.1905425 121:0.4078835 122:0.2800424 123:0.3613745 124:0.1158109 125:0.003505133 126:0.001293812 127:0.005137589 128:0.4465528 129:0.547505 130:-3.268188 133:1.735776e-05 134:-1.517663e-06 135:0.0008500105 136:-0.0008831579 
0.30066682409408529 2 2 0 1:169 2:-1.346754 3:9.410161 4:3.590893 5:37.37171 6:21.25667 7:5.126927 8:9.362724 9:7.355775 10:28.22057 11:18.46113 12:3.542486 13:-15.62187 14:13.8784 15:0.2088524 16:-0.1132214 17:-1.980383 18:0.9456567 19:1.2019 20:-1.400124 21:-1.381986 22:-1.72969 23:4.750409 24:3.291672 25:-1.365568 26:-0.6903092 27:0.01947346 28:-0.3238806 29:0.5168249 30:0.2129014 31:0.1140127 32:0.2633967 33:0.7511609 34:0.3199195 35:-0.01135541 36:-0.6258246 37:-1.236446 38:0.05431157 39:1.226756 40:0.01303085 41:0.4345874 42:-2.631586 44:0.0001500771 45:0.008643395 49:0.6479865 50:-1.537025 51:1.153724 52:9.373073 53:3.309246 54:5.948927 55:3.395822 56:35.53002 57:2.465994 58:19.45 59:2.68806 60:6.722343 61:2.594105 62:11.4322 63:6.366883 64:10.76192 65:7.676744 66:21.97206 67:5.579123 68:14.58158 69:3.178173 70:4.75567 71:3.692191 72:-15.4636 73:0.04334166 74:13.84783 75:0.4761431 76:0.3750359 77:0.8255324 78:-0.477993 79:0.6952941 80:-0.9111118 81:0.6802891 82:0.6477831 83:0.7470053 84:0.4179261 85:1.216685 86:-1.376332 87:0.5840393 88:-1.058923 89:1.069003 90:-1.362506 91:1.588283 92:2.812269 93:1.968734 94:2.667511 95:0.6395621 96:-0.2153367 97:1.919866 98:-1.2986 99:0.02501883 100:-0.004315529 101:0.1757521 102:-0.1507124 103:0.3051352 104:0.4404539 105:0.3870184 106:0.0904023 107:0.3208247 108:0.02738416 109:0.351864 110:0.1277643 111:0.4600137 112:0.3226396 113:0.2030092 114:0.2127328 115:0.4282784 116:0.2662371 117:1.122569 118:-0.1372914 119:0.9785667 120:-0.442658 121:0.08708456 122:0.1478239 123:0.5497291 124:0.6502416 125:0.01041108 126:0.00949641 127:0.04974472 128:0.3941928 129:2.788675 130:-4.908341 133:5.603575e-05 134:8.171298e-05 135:0.003102918 136:0.005028225 
0 0 0 2 1:195 2:-6.131056 3:12.48478 4:15.18397 5:23.94542 6:13.37971 7:15.34106 8:14.4963 9:8.593423 10:13.98396 11:6.158529 12:0.8970636 13:-1.645204 14:13.75059 15:-0.2500104 16:-0.07575048 17:0.6156591 18:-1.374719 19:0.9017456 20:0.9009181 21:-0.4056697 22:1.339053 23:-3.463135 24:-2.762682 25:0.06959283 26:1.159206 27:-0.101548 28:0.2104734 29:-0.2080088 30:-0.2105033 31:-0.00204061 32:-0.811347 33:-0.3290494 34:0.0475694 35:-0.06054774 36:-0.1511449 37:1.038098 38:1.256303 39:0.7877299 40:0.01104546 41:0.3195796 42:-7.557044 44:-9.15955e-05 45:-0.002207856 49:0.6251491 50:-5.844472 51:0.04593286 52:12.50377 53:1.198562 54:14.22777 55:2.402159 56:25.86477 57:1.501447 58:12.27296 59:1.528152 60:14.11053 61:2.407927 62:15.54441 63:2.986677 64:6.533309 65:5.581964 66:18.03271 67:4.470699 68:9.498237 69:3.562592 70:0.1528734 71:3.128479 72:-3.558539 73:0.1655345 74:13.86931 75:0.305159 76:-0.2581838 77:0.4790453 78:0.1437136 79:0.4926468 80:0.4604446 81:0.6965702 82:-0.7627534 83:1.165368 84:1.230255 85:0.5171591 86:0.7646039 87:0.3721309 88:-0.4858024 89:0.5851375 90:0.9570533 91:1.44221 92:-1.065678 93:1.501675 94:-2.216065 95:2.063237 96:-1.062846 97:1.527277 98:-0.1080223 99:0.03743933 100:-0.05012928 101:0.0828839 102:0.1621056 103:0.1446896 104:-0.09735854 105:0.09665173 106:-0.1655906 107:0.3817867 108:-0.005298492 109:0.325283 110:-0.3400781 111:0.0759231 112:-0.2965459 113:0.129769 114:0.1128823 115:0.5699958 116:0.1679157 117:1.108368 118:-0.4359457 119:0.3606846 120:0.6499912 121:0.5783678 122:0.7480928 123:0.5551352 124:0.3444171 125:0.007994268 126:0.01646549 127:0.05375737 128:0.3355494 129:2.108705 130:-7.357743 133:7.410468e-05 134:-3.889543e-05 135:0.003300689 136:-0.00063129 
2 0 0.29821131820796948 2 1:172 2:-0.3203611 3:13.51914 4:9.10773 5:20.02769 6:11.35281 7:9.728172 8:15.11851 9:14.8969 10:22.66141 11:8.44774 12:3.998958 13:7.48408 14:14.14982 15:0.7246223 16:1.069264 17:-0.3496343 18:-0.5661198 19:0.2398808 20:-0.5289074 21:-0.2731385 22:-1.904557 23:1.69084 24:-3.218277 25:-2.853065 26:0.5888994 27:-0.07036867 28:-0.07357311 29:0.04616556 30:0.3553766 31:-0.05789812 32:0.2056652 33:0.1600314 34:1.104113 35:0.08030058 36:-0.5581917 37:0.7107769 38:-0.2441688 39:-1.003187 40:0.005723486 41:0.4254037 42:-3.00629 44:-4.861277e-05 45:-0.00172023 49:1.566467 50:-1.469058 51:1.736317 52:12.11612 53:0.8057525 54:9.661242 55:2.230067 56:21.19044 57:1.116488 58:10.91403 59:2.781013 60:9.89582 61:2.713653 62:14.98125 63:3.030608 64:17.3642 65:2.752699 66:20.59702 67:5.199461 68:12.33787 69:4.590823 70:7.660407 71:0.9738418 72:6.689089 73:0.1275761 74:14.22504 75:0.2914709 76:0.488392 77:0.4137764 78:0.3790852 79:0.5474241 80:-0.6879779 81:0.4121412 82:-0.405543 83:0.458886 84:0.09414045 85:0.5797812 86:-0.1152948 87:1.735501 88:-1.036583 89:0.9147384 90:-1.058443 91:0.8348671 92:1.267143 93:1.205655 94:-1.955934 95:1.311175 96:-0.8640701 97:1.483071 98:1.438555 99:0.03625287 100:-0.0305566 101:0.2525965 102:0.02689476 103:0.2719862 104:0.08193495 105:0.2745697 106:0.06381553 107:0.2548997 108:-0.06037058 109:0.3714404 110:0.3179222 111:0.1925898 112:0.00275153 113:0.5086002 114:0.4389565 115:0.5053125 116:0.00163509 117:0.5321806 118:-0.1089835 119:0.5404248 120:0.3223923 121:0.7728109 122:-0.251015 123:0.3455932 124:-0.4803841 125:0.02118346 126:-0.002063257 127:0.0455869 128:0.4288099 129:1.807668 130:-2.926489 133:5.822064e-05 134:-2.265796e-05 135:0.002081238 136:0.0001329981 
2 2 0 1.2740491207277349 1:176 2:1.294901 3:7.711128 4:10.83832 5:31.35003 6:10.39925 7:9.504198 8:20.84158 9:14.31999 10:17.83655 11:10.29771 12:3.928734 13:5.166733 14:14.2726 15:0.5435816 16:-0.8097078 17:-0.2035877 18:0.856488 19:-1.278578 20:-1.349603 21:-0.4876282 22:-1.331124 23:1.681867 24:1.552791 25:3.798205 26:3.282261 27:0.05523615 28:-0.4232438 29:0.2531341 30:0.7598671 31:-1.22092 32:0.554994 33:0.5145379 34:-1.197703 35:-0.214262 36:-1.464303 37:-0.009228015 38:0.8035209 39:-1.354384 40:0.01124037 41:0.4611866 42:-1.555665 44:0.0001211012 45:0.007990185 49:0.877956 50:0.5833977 51:1.599795 52:8.940694 53:1.843205 54:11.50811 55:1.822706 56:30.00244 57:3.896464 58:11.32352 59:2.689795 60:10.89361 61:2.183667 62:21.86603 63:2.729477 64:16.29873 65:3.445977 66:16.14553 67:2.651152 68:8.537521 69:6.112087 70:-0.9504302 71:7.514712 72:2.09652 73:0.09803972 74:14.19447 75:0.6147259 76:0.7645738 77:0.4119498 78:-0.746688 79:1.253039 80:-1.197391 81:1.839862 82:1.918429 83:0.939867 84:-0.6850789 85:0.9807081 86:-1.038714 87:2.006634 88:1.081503 89:0.7688202 90:-0.5219746 91:2.136459 92:2.128816 93:1.002819 94:0.6434988 95:2.237395 96:0.4742999 97:2.168369 98:2.288863 99:0.03344329 100:0.01439165 101:0.3064339 102:-0.1039794 103:0.1590868 104:0.1411674 105:0.2177862 106:0.4128433 107:0.5886549 108:-0.4116307 109:0.387963 110:0.1958806 111:0.6217197 112:0.04420551 113:0.6228312 114:-0.6261401 115:0.606808 116:-0.3275037 117:0.5988155 118:-0.6689829 119:0.5367994 120:0.108899 121:0.7488358 122:0.1836537 123:1.098949 124:-0.4629876 125:0.01435442 126:0.004560163 127:0.04274542 128:0.4367689 129:2.450583 130:-3.3913 133:0.0001314415 134:0.000145377 135:0.005472464 136:0.007654531 
2 1.8689858507409214 2 2 1:165 2:-1.629648 3:14.73974 4:11.60799 5:36.91517 6:18.48986 7:14.09561 8:12.75906 9:16.87288 10:24.56427 11:14.19233 12:4.489602 13:-9.226487 14:14.74815 15:-0.3724994 16:-0.9270282 17:1.241199 18:1.117638 19:-0.5668666 20:-1.158923 21:-2.383663 22:0.2270548 23:2.055444 24:0.5087066 25:0.2845708 26:-3.357229 27:-0.02908344 28:-0.1041563 29:0.2091432 30:0.03931448 31:0.09515595 32:-0.2686811 33:-0.02708243 34:0.02044444 35:-0.4757523 36:0.03396297 37:0.3716528 38:0.569574 39:0.6536113 40:0.01424303 41:0.5550447 42:0.7879192 43:320.0177 44:8.761821e-06 45:-0.001866923 46:0.02537378 49:0.5127102 50:-1.23056 51:1.298604 52:15.79983 53:1.932048 54:10.04133 55:2.233865 56:35.49067 57:1.253681 58:19.37904 59:1.875733 60:15.57992 61:4.046388 62:15.85522 63:3.179519 64:15.78273 65:3.930521 66:22.34518 67:1.571474 68:13.88132 69:0.5184266 70:4.066853 71:5.671841 72:-5.154075 73:0.04781492 74:14.78183 75:0.2381048 76:-0.103926 77:0.3413317 78:-0.7049474 79:0.4918799 80:0.6361619 81:0.546517 82:0.08264817 83:0.6814366 84:-0.09783924 85:0.4376355 86:-0.3866236 87:0.8804467 88:-0.8046771 89:0.8548244 90:0.9255839 91:0.8463624 92:0.3767664 93:0.7199649 94:-0.4278001 95:1.122145 96:-0.4763568 97:1.382 98:-1.928769 99:0.02139784 100:-0.02834553 101:0.09108558 102:-0.05465972 103:0.06715924 104:0.1699925 105:0.2919879 106:0.04023604 107:0.1873404 108:0.02047813 109:0.3992661 110:-0.2880071 111:0.1429638 112:0.08243836 113:0.5422083 114:-0.0722431 115:0.1605757 116:-0.4108962 117:0.3520673 118:0.02082779 119:0.161355 120:0.2048638 121:0.4142908 122:0.4413665 123:0.9474146 124:0.1316557 125:0.01071088 126:0.004479376 127:0.004955771 128:0.553798 129:0.6634717 130:1.306792 131:125.9188 132:251.1246 133:1.403553e-05 134:-8.167543e-06 135:0.00082188 136:-0.00141524 137:0.01933422 138:0.01466867 
0 0.11338183483426291 0 0 1:195 2:1.404889 3:16.46715 4:16.7662 5:27.99925 6:17.15366 7:19.24572 8:12.02343 9:4.211056 10:6.635901 11:16.52398 12:6.918016 13:5.148337 14:14.06865 15:-0.01430651 16:0.6222547 17:0.367597 18:0.8383328 19:0.748088 20:1.435418 21:-0.3725544 22:-2.698653 23:-0.5821962 24:-1.720599 25:1.401911 26:1.823936 27:0.04837065 28:0.1146074 29:-0.4782736 30:0.1383767 31:0.6247576 32:-0.4355468 33:-0.1321001 34:-0.2987657 35:0.3470492 36:0.5530674 37:0.09945737 38:-0.03397525 39:-0.7614388 40:0.002913389 41:0.3663676 42:-6.244331 44:-3.661907e-05 45:-0.0004865605 49:0.8910242 50:1.237437 51:1.488467 52:15.87948 53:0.6082721 54:16.27394 55:1.592466 56:26.7725 57:3.546415 58:16.86193 59:3.395081 60:16.92496 61:0.7169386 62:12.59988 63:5.856738 64:8.442059 65:3.085064 66:8.034602 67:3.080021 68:18.40768 69:2.597926 70:5.382055 71:3.167468 72:2.571752 73:0.08152707 74:14.01395 75:0.324892 76:-0.07716446 77:0.7192869 78:0.6988079 79:0.375662 80:0.01711094 81:1.192913 82:-0.2662382 83:0.7975478 84:0.3738187 85:0.638791 86:1.06715 87:0.699664 88:0.3032452 89:1.208754 90:-2.077931 91:1.141225 92:-1.424811 93:0.594651 94:-0.5853789 95:0.852304 96:0.515896 97:1.204553 98:1.851374 99:0.02702265 100:0.01435347 101:0.2109184 102:-0.0522632 103:0.1450469 104:-0.3625425 105:0.1227773 106:-0.001277372 107:0.4387848 108:0.392583 109:0.2291077 110:-0.202659 111:0.5446128 112:0.07451566 113:0.2296231 114:-0.0271985 115:0.8062694 116:0.07032304 117:0.2761035 118:0.3159753 119:0.5168225 120:-0.1224595 121:0.439944 122:0.06376172 123:0.6474221 124:-0.2391121 125:0.01338064 126:0.003194578 127:0.0162919 128:0.3785512 129:0.4649784 130:-6.021141 133:1.95013e-05 134:-3.56993e-05 135:0.000965504 136:-0.001104666 
2 2 2 2 1:202 2:-2.267553 3:17.74884 4:4.818627 5:28.25269 6:13.43612 7:20.11891 8:23.29125 9:-0.7705891 10:20.59948 11:29.76531 12:8.000477 13:12.65464 14:14.39135 15:0.6201796 16:-0.4709028 17:-2.737125 18:-2.079504 19:0.564697 20:3.258704 21:1.418162 22:-3.209847 23:0.1399551 24:2.380751 25:1.00943 26:1.92109 27:0.113041 28:-0.06930009 29:-0.2428215 30:0.1793906 31:0.3292676 32:0.5412523 33:0.2793976 34:-0.3731718 35:0.7465467 36:-0.1561088 37:-0.647526 38:0.07840464 39:-0.584381 40:0.008550492 41:0.4768185 42:-1.991308 44:9.069223e-05 45:0.003650454 49:1.027854 50:-2.987637 51:0.7563091 52:18.26438 53:4.415331 54:8.183785 55:3.298275 56:30.52604 57:1.024499 58:12.60898 59:5.269874 60:15.81772 61:2.240553 62:21.57299 63:5.742009 64:3.848272 65:4.90449 66:21.36411 67:4.530935 68:27.24529 69:2.653771 70:7.229528 71:5.296509 72:11.04551 73:0.18837 74:14.26219 75:0.2278043 76:0.2975335 77:0.5048795 78:-0.08439679 79:1.023289 80:-1.252246 81:0.6839016 82:-1.133059 83:1.095838 84:-0.3257243 85:1.505424 86:1.131124 87:0.69763 88:1.038013 89:1.289832 90:-2.416924 91:0.8433141 92:-0.3872453 93:1.152603 94:1.432394 95:0.7214937 96:0.09001992 97:1.106382 98:0.8761978 99:0.05639003 100:0.02951704 101:0.1699833 102:0.003306773 103:0.1778663 104:-0.1086754 105:0.7353314 106:-0.05199489 107:0.5997241 108:-0.03765563 109:0.4804796 110:0.448094 111:1.16018 112:0.5039805 113:0.4476866 114:-0.07931129 115:0.961779 116:0.1251294 117:0.290805 118:0.03800509 119:0.4580418 120:-0.3632427 121:0.1108034 122:-0.102448 123:0.4015882 124:-0.2650458 125:0.03159834 126:0.01043471 127:0.04463184 128:0.4545573 129:1.609309 130:-2.960553 133:5.304e-05 134:3.071281e-05 135:0.002339621 136:0.0009022552 
0 2 0 0 1:137 2:7.318051 3:12.51533 4:-3.879363 5:22.19647 6:21.28459 7:18.82209 8:21.24727 9:12.02199 10:16.95754 11:12.56515 12:-12.2696 13:4.96944 14:14.20222 15:-0.5972881 16:-1.51453 17:-2.298839 18:1.718752 19:0.768375 20:0.3258777 21:3.485779 22:0.07234719 23:-0.7579942 24:2.020196 25:-0.4109717 26:2.325073 27:-0.03246498 28:0.2482905 29:0.2136121 30:0.2743193 31:-0.1099495 32:0.1177648 33:0.1874305 34:-0.3917232 35:-0.6896956 36:-1.470153 37:-0.6502022 38:0.2360875 39:-1.024053 40:-0.01548657 41:0.2976704 42:-9.662974 44:-0.0001219196 45:-0.006723167 49:1.208798 50:7.901652 51:2.433767 52:14.34472 53:3.659002 54:-1.093675 55:3.028246 56:20.15618 57:2.625672 58:20.7756 59:0.9183886 60:18.34301 61:5.508554 62:17.04978 63:0.8054566 64:12.08272 65:3.507994 66:18.6092 67:3.16452 68:10.03582 69:1.049368 70:-11.74613 71:3.825473 72:1.846689 73:0.07559988 74:14.25413 75:0.3927325 76:-0.4605478 77:0.5226924 78:-0.8137665 79:0.7524008 80:-1.175631 81:0.62248 82:0.6369338 83:0.6338494 84:-0.09984767 85:0.5707626 86:-0.05057955 87:1.237057 88:1.815143 89:1.102244 90:0.8064349 91:2.556404 92:1.054883 93:1.205043 94:1.768078 95:0.568206 96:-0.3843415 97:1.538323 98:2.22322 99:0.03242205 100:-0.0003406145 101:0.1610786 102:0.1091023 103:0.3595899 104:0.05066872 105:0.440724 106:0.1106781 107:0.3308916 108:-0.04645615 109:0.1945445 110:0.09492131 111:0.1381392 112:0.1132485 113:0.8935501 114:-0.03925335 115:0.3150008 116:-0.4597084 117:0.791819 118:-0.7392552 119:0.9470295 120:0.04218832 121:0.1876522 122:0.3425587 123:0.6451406 124:-0.3641509 125:0.01094908 126:-0.004681542 127:0.02701723 128:0.3195259 129:1.514797 130:-8.549921 133:6.972204e-05 134:-3.659217e-05 135:0.004410688 136:-0.001049391 141:0.0006324555 142:-0.0005 
0 2 0 0 1:127 2:4.927124 3:12.20985 4:-0.4674826 5:14.31596 6:27.7951 7:27.72747 8:24.35272 9:19.48021 10:19.7767 11:29.14452 12:11.61842 13:10.24062 14:14.20574 15:-0.3132668 16:0.65679 17:2.171933 18:0.09679917 19:1.509009 20:0.3237864 21:2.486764 22:2.395011 23:2.053551 24:3.217714 25:0.322182 26:-0.8364571 27:0.06611452 28:0.660266 29:-1.304475 30:-0.9183103 31:-0.1819508 32:-0.2225102 33:0.2275415 34:-1.014443 35:-2.681941 36:-0.9746509 37:1.150734 38:-0.691099 39:-1.545547 40:-0.00580123 41:0.3080463 42:-8.827865 44:0.0001067239 45:0.006239599 49:1.333783 50:5.088154 51:1.956131 52:11.61857 53:3.593768 54:-3.079764 55:1.206854 56:13.97482 57:3.528533 58:25.3278 59:2.962823 60:26.60727 61:5.935723 62:21.96684 63:8.029418 64:17.90636 65:3.220018 66:17.46003 67:5.52284 68:24.67162 69:2.89662 70:11.74777 71:3.776845 72:11.95398 73:0.1060485 74:14.11945 75:1.060588 76:-0.8287885 77:2.078701 78:1.749191 79:1.3995 80:1.928698 81:0.5503612 82:0.5231944 83:0.8309311 84:1.264192 85:0.6241692 86:0.209625 87:1.742434 88:1.694252 89:4.083591 90:3.34924 91:1.573629 92:2.078391 93:2.556184 94:0.01780166 95:1.124151 96:0.5748841 97:2.636248 98:1.126394 99:0.02349327 100:0.03657551 101:0.4059485 102:0.2198067 103:0.9091676 104:-0.2901763 105:0.8323577 106:-0.2164191 107:0.4709155 108:0.1833206 109:0.5892453 110:0.01142941 111:0.3672383 112:0.2312293 113:1.078525 114:-0.1484454 115:1.740332 116:-0.8233343 117:1.066987 118:-0.0828881 119:0.8930017 120:0.4897097 121:0.4204723 122:-0.605117 123:0.8958998 124:-1.033929 125:0.009410472 126:-0.006682217 127:0.02486051 128:0.2911848 129:1.673059 130:-9.721705 133:0.0001167735 134:0.0001360724 135:0.007092964 136:0.007690193 
0 1.3696072732227804 2 0 1:127 2:-6.821229 3:-4.234434 4:9.137578 5:43.92298 6:8.445665 7:-10.46913 8:16.18692 9:5.057447 10:-5.096038 11:6.883527 12:0.4788938 13:9.261909 14:13.7445 15:0.1020738 16:-3.333424 17:-1.871676 18:-1.586601 19:-1.134912 20:0.9222696 21:1.363999 22:-2.222291 23:-1.171476 24:-0.6423728 25:-2.255412 26:0.5997741 27:-0.05545416 28:0.179694 29:-0.7137811 30:-0.04277561 31:-0.5217888 32:-0.1333785 33:0.4357822 34:-0.8691012 35:-1.217725 36:0.4776953 37:-0.4346758 38:-0.8605266 39:-0.02753595 40:0.007800607 41:0.1854087 42:-14.80124 44:-0.000187112 45:-0.01071848 48:-0.005 49:0.5818588 50:-6.75884 51:5.998855 52:0.5748833 53:2.810255 54:11.43134 55:3.214749 56:45.14162 57:2.466932 58:9.657547 59:3.008394 60:-11.98459 61:3.685478 62:13.94444 63:3.739891 64:8.077499 65:4.543972 66:-4.43538 67:0.9874086 68:7.583502 69:3.498388 70:3.274163 71:1.085423 72:8.459548 73:0.1118004 74:13.82798 75:0.3475343 76:-0.2046931 77:2.184896 78:-0.7867946 79:1.033969 80:-1.035193 81:1.210131 82:0.1719633 83:0.6074077 84:-0.01714605 85:0.9685791 86:0.2386119 87:1.372719 88:2.01064 89:2.482761 90:0.5127222 91:0.9537985 92:-0.4676197 93:0.9518602 94:0.2492065 95:1.929956 96:0.1934286 97:0.5674009 98:0.3092715 99:0.02125469 100:-0.040998 101:0.1100052 102:0.006115574 103:1.159405 104:-0.5608397 105:0.6143479 106:-0.1422558 107:0.3506039 108:-0.2457316 109:0.3979764 110:-0.2177657 111:0.4258681 112:0.2465106 113:0.4706732 114:-0.2803256 115:1.068227 116:-0.9307132 117:0.2849055 118:0.3555225 119:0.2088763 120:-0.07561937 121:0.6754313 122:-0.4494792 123:0.5494825 124:0.2577093 125:0.008333318 126:0.007697151 127:0.04260287 128:0.2197578 129:2.430954 130:-12.83591 133:6.739416e-05 134:-8.969626e-05 135:0.005049254 136:-0.003556774 139:0.01 140:0.005 141:0.004483303 142:-0.005 
0 2 1.5497482619829024 0 1:127 2:1.765498 3:14.43523 4:9.935169 5:26.7817 6:10.23697 7:7.599931 8:25.28691 9:3.977545 10:-12.36802 11:9.171151 12:0.9077091 13:-0.05637932 14:14.24145 15:-1.592834 16:1.933609 17:0.1362775 18:3.56013 19:5.751718 20:-0.5447021 21:-2.239174 22:4.752997 23:2.479991 24:1.458006 25:1.763301 26:-0.491537 27:0.03542051 28:-0.3847183 29:0.6912892 30:-0.6108028 31:0.0773382 32:1.683934 33:0.6723015 34:-0.1245275 35:1.310531 36:2.473856 37:0.8921624 38:-0.3537793 39:0.842361 40:-0.0107905 41:0.3204744 42:-7.515924 44:0.0001317993 45:0.01048089 47:0.0125 48:-0.00225 49:3.775288 50:4.321053 51:3.918496 52:11.45013 53:2.787625 54:10.28617 55:5.765196 56:22.07789 57:10.2878 58:2.136674 59:2.48035 60:8.663276 61:3.358779 62:27.95274 63:8.844073 64:-2.906625 65:8.354908 66:-16.86483 67:3.219277 68:6.918228 69:3.589093 70:-1.687866 71:1.731688 72:0.401028 73:0.06558935 74:14.20414 75:1.089172 76:-0.5190237 77:1.565633 78:0.1396118 79:1.019685 80:0.3964204 81:1.469476 82:1.605475 83:4.10002 84:0.9133418 85:1.063792 86:-1.444906 87:0.9019809 88:-0.6948288 89:3.59333 90:1.148413 91:4.488542 92:-1.095244 93:1.755892 94:-0.2476044 95:0.6878634 96:1.409949 97:1.29293 98:-0.9886544 99:0.02201288 100:0.02502529 101:0.5383218 102:-0.2399199 103:0.7496296 104:0.5389867 105:0.3718293 106:-0.3717486 107:1.066995 108:0.2608643 109:2.049877 110:1.299266 111:0.5505834 112:0.1234325 113:0.7206672 114:-0.3162637 115:1.988592 116:1.150913 117:1.526207 118:1.373201 119:0.6581743 120:0.4649985 121:0.538057 122:-0.03186028 123:0.3091162 124:0.6064894 125:0.01183234 126:-0.002459013 127:0.04427508 128:0.3061658 129:2.233805 130:-9.116688 133:6.891436e-05 134:5.771286e-05 135:0.003529554 136:0.004807299 139:0.003674234 140:0.0155 141:0.00242384 142:0.0005000002 
0 0 2 0 1:132 2:5.573101 3:20.50602 4:17.1054 5:35.45103 6:7.999539 7:-4.514338 8:-4.582083 9:11.11374 10:-13.54357 11:-8.13379 12:-3.669291 13:-3.879068 14:14.05 15:0.1325889 16:1.552172 17:0.839735 18:1.876297 19:0.4052339 20:0.9164694 21:-1.08812 22:0.3021332 23:-2.204452 24:-4.300988 25:-1.912403 26:-3.417016 27:-0.01064444 28:-0.6503868 29:-0.5531034 30:-0.5676713 31:-1.117842 32:0.7751806 33:1.225329 34:1.117898 35:1.116714 36:1.805205 37:1.500938 38:0.8349417 39:0.1189647 40:-0.002827254 41:0.3553039 42:-7.89853 44:0.0001415612 45:0.007638045 49:1.874905 50:5.740426 51:2.621357 52:18.60399 53:1.368765 54:16.07892 55:2.968846 56:33.08445 57:0.8931979 58:7.368199 59:1.7389 60:-5.858729 61:2.393375 62:-3.364003 63:2.063487 64:10.3434 65:5.59406 66:-11.54735 67:8.212237 68:-3.451865 69:3.624321 70:-1.634501 71:6.178765 72:1.024215 73:0.08430109 74:14.08017 75:1.045949 76:0.5831568 77:0.8223366 78:1.185728 79:0.8284043 80:1.020346 81:1.779346 82:2.275813 83:1.494453 84:-0.5917472 85:2.23789 86:-0.9087083 87:1.647604 88:-1.51434 89:1.865463 90:-0.9178126 91:2.642118 92:-2.460763 93:2.405669 94:-2.978512 95:1.287612 96:-1.419763 97:1.226774 98:-1.803967 99:0.01652086 100:-0.009965152 101:0.315227 102:-0.3571194 103:0.3663985 104:-0.2476212 105:0.5413837 106:-0.06271449 107:0.90904 108:-0.3179486 109:0.5174344 110:0.5352488 111:0.6926401 112:0.7204183 113:0.445879 114:0.5358905 115:0.5916976 116:0.6276593 117:0.8232856 118:0.7807924 119:1.237821 120:0.4579093 121:0.2740138 122:0.5118682 123:0.8017427 124:-0.03041699 125:0.01064487 126:0.006679674 127:0.04436046 128:0.3383734 129:1.918081 130:-8.967728 133:0.0001073805 134:0.0001077403 135:0.004571029 136:0.005169399 
0 2 0 0 1:127 2:1.682042 3:15.21839 4:2.102503 5:24.2131 6:15.23104 7:10.15751 8:11.48892 9:4.165712 10:17.45265 11:11.69526 12:1.065013 13:4.316539 14:13.99334 15:-0.5401663 16:-0.6277875 17:2.492458 18:2.930237 19:1.790381 20:-1.258862 21:0.5399029 22:-0.2663551 23:-0.09918381 24:1.271153 25:0.1385101 26:-1.749545 27:0.03290386 28:0.1269691 29:0.185769 30:0.01528498 31:-0.1242204 32:-0.02786787 33:0.065341 34:0.2166609 35:0.8037843 36:-0.355883 37:0.2528589 38:-0.8516672 39:-0.4507146 40:-0.004479933 41:0.3558164 42:-8.121346 44:1.014817e-05 45:0.0002621135 49:0.909469 50:2.424288 51:1.014442 52:16.03605 53:3.975371 54:-1.121645 55:4.950497 56:20.182 57:2.838059 58:12.99816 59:2.139699 60:11.80318 61:0.8784499 62:10.97589 63:2.73411 64:3.976423 65:3.72549 66:16.77012 67:2.800466 68:9.684845 69:0.6553719 70:1.023464 71:3.819021 72:7.01353 73:0.07718047 74:13.94057 75:0.2525684 76:-0.420009 77:0.354642 78:-0.5174444 79:1.081312 80:1.105434 81:1.182573 82:1.560182 83:0.6483905 84:0.7247497 85:0.435836 86:-0.4978638 87:0.8484761 88:0.02029632 89:1.404557 90:-0.6229568 91:0.8559296 92:0.8199988 93:0.9733264 94:0.2826348 95:1.454212 96:0.9081033 97:1.312232 98:-0.5863738 99:0.01421419 100:0.02483063 101:0.1682688 102:0.02736322 103:0.2116616 104:0.05085242 105:0.9137223 106:0.2910844 107:0.7649429 108:0.007104634 109:0.3996512 110:0.0211629 111:0.4609806 112:-0.1607364 113:0.5025323 114:0.318332 115:0.424491 116:0.4823081 117:0.3360213 118:-0.4417922 119:0.3028778 120:0.1218975 121:0.4429363 122:-0.509034 123:0.9793604 124:-0.6120113 125:0.006081505 126:-0.002675283 127:0.0151708 128:0.3511159 129:0.7823029 130:-8.322989 133:5.606003e-05 134:4.407376e-05 135:0.002009023 136:0.001067238 
2 1.1453575667123863 0.87821495991237586 0 1:161 2:10.0458 3:-2.935933 4:-3.290482 5:3.797177 6:15.19587 7:0.4396117 8:14.09161 9:42.42399 10:27.19656 11:5.547852 12:-2.304598 13:15.68056 14:13.86792 15:-1.286328 16:0.3895077 17:-2.459558 18:-3.91478 19:-0.7509891 20:3.198152 21:3.145675 22:0.7815473 23:-0.6117215 24:0.4885989 25:-0.29854 26:0.7249556 27:-0.03660593 28:0.3842362 29:0.8647057 30:0.2387195 31:-0.5734419 32:-1.038147 33:-0.2296417 34:0.3443866 35:-0.3040899 36:-0.6213625 37:-0.2371975 38:-0.2098009 39:-0.2674723 40:0.01375804 41:0.2732855 42:-11.3142 44:-0.0005037813 45:-0.02095955 48:-0.0065 49:2.13958 50:11.48071 51:2.000181 52:-3.691081 53:4.074269 54:-0.06008492 55:6.71307 56:9.255308 57:2.031351 58:16.4733 59:4.963366 60:-3.451605 61:5.138914 62:9.895704 63:1.571995 64:41.40433 65:6.550192 66:29.15359 67:1.350474 68:5.224859 69:1.592513 70:-2.174361 71:3.373693 72:15.37217 73:0.05841168 74:13.91207 75:0.5963269 76:-0.8991652 77:1.470655 78:-0.6563957 79:1.152551 80:-1.328037 81:2.192044 82:-1.164181 83:1.813331 84:0.7564722 85:1.247662 86:1.647627 87:1.852103 88:1.166256 89:0.6636134 90:0.5995709 91:1.452523 92:-0.3763663 93:0.3778804 94:0.3577724 95:0.4916366 96:0.3378803 97:0.7024475 98:0.08901834 99:0.02123839 100:-0.03144539 101:0.3065464 102:0.1352633 103:0.4350344 104:0.4972755 105:0.9743476 106:-0.1905316 107:1.53247 108:-0.7491143 109:0.6919684 110:-0.7917017 111:1.058366 112:0.1944556 113:1.176999 114:0.4649231 115:0.3113496 116:-0.4874696 117:0.5206195 118:-0.2635033 119:0.4452102 120:0.08018257 121:0.1043365 122:-0.06958432 123:0.2262414 124:-0.003816101 125:0.01560604 126:0.001020464 127:0.1614086 128:0.3954635 129:6.882133 130:-6.166206 133:0.0003228176 134:-0.0001420336 135:0.01419485 136:-0.005489759 139:0.01029563 140:0.008 141:0.002345208 142:-0.003 
2 2 2 2 1:156 2:7.155033 3:0.2917931 4:-18.64605 5:17.56334 6:20.92454 7:26.69841 8:33.64249 9:28.23571 10:-2.409001 11:6.078817 12:-1.177491 13:11.40231 14:13.78854 15:-0.7566183 16:2.765515 17:-0.8202621 18:1.162028 19:-1.667794 20:-0.4083154 21:-0.6427346 22:0.3901863 23:-1.369977 24:-5.244648 25:-3.714464 26:5.220904 27:-0.1624301 28:-0.05703776 29:-1.178848 30:-0.03118187 31:-0.3506687 32:0.8616346 33:0.2871019 34:-1.474184 35:-1.229334 36:-1.238302 37:1.197643 38:2.686641 39:-0.7471429 40:0.01348801 41:0.2841333 42:-9.240505 44:-0.0002425635 45:-0.01063662 49:1.173036 50:8.111413 51:4.231472 52:-3.041105 53:1.857849 54:-17.19815 55:2.335621 56:15.88403 57:3.101224 58:22.8348 59:3.027477 60:27.81602 61:1.029198 62:34.45764 63:1.874787 64:28.10126 65:2.252935 66:-0.5972732 67:9.65094 68:11.61869 69:7.075084 70:2.774221 71:8.224968 72:4.817384 73:0.2595146 74:13.99919 75:0.3325071 76:-0.319886 77:1.689288 78:2.594739 79:0.5413734 80:-0.3839621 81:0.6460981 82:1.065075 83:1.399378 84:-1.593828 85:0.7306167 86:-0.9976823 87:2.614974 88:1.231793 89:1.900626 90:1.373515 91:2.260754 92:1.101906 93:2.184953 94:-2.904414 95:3.894642 96:-4.203586 97:2.009041 98:3.176896 99:0.05710325 100:-0.0877274 101:0.236082 102:-0.08873535 103:0.4426219 104:-0.6779774 105:0.213861 106:0.09157842 107:0.05377574 108:-0.325293 109:0.8132867 110:0.158036 111:0.1723067 112:0.1981069 113:0.9203994 114:-1.126731 115:0.4664575 116:-0.5952763 117:0.6900661 118:-0.3720102 119:1.302029 120:0.3245073 121:0.88148 122:1.611845 123:1.622779 124:0.01865264 125:0.03285185 126:0.007095901 127:0.06724858 128:0.333687 129:2.944376 130:-7.046321 133:8.656858e-05 134:-0.000122799 135:0.003496255 136:-0.004601497 141:0.003162278 142:-0.0025 
0 2 0 0 1:137 2:-5.950177 3:20.9035 4:20.04836 5:39.64961 6:17.67274 7:-0.6509284 8:15.17615 9:17.45369 10:9.676462 11:2.180316 12:-11.98221 13:-5.987335 14:13.95363 15:-0.3427991 16:0.972111 17:1.281329 18:2.620717 19:-0.9067012 20:-1.721922 21:-0.5342686 22:3.329511 23:3.431259 24:-2.920378 25:-3.482911 26:-4.722464 27:-0.002224445 28:0.2545373 29:-0.03123407 30:-0.01855547 31:-0.7257733 32:0.5653378 33:0.210283 34:-0.6484089 35:-0.5434069 36:-0.2635161 37:0.0644099 38:-0.2614984 39:-0.6449206 40:0.06343967 41:0.3599159 42:-7.714727 44:6.299945e-05 45:0.0007667751 47:0.02 48:0.0035 49:0.4821319 50:-5.584701 51:1.754708 52:19.73635 53:2.243307 54:18.61654 55:4.240635 56:36.23032 57:1.490904 58:18.75754 59:2.829493 60:1.656066 61:1.975024 62:15.56714 63:5.254386 64:13.18637 65:5.971014 66:4.899135 67:4.806083 68:5.900347 69:5.782997 70:-7.374887 71:7.651275 72:-0.01443329 73:0.006184513 74:13.95538 75:0.3683712 76:-0.4505998 77:0.3942776 78:0.3125549 79:0.5916132 80:0.4180186 81:1.182923 82:1.993762 83:0.808004 84:-1.000794 85:0.7656547 86:-1.056468 87:1.287867 88:0.737698 89:1.253373 90:2.196907 91:1.169626 92:2.046641 93:1.467982 94:-1.255152 95:1.800904 96:-1.080071 97:2.464457 98:-1.025095 99:0.1093248 100:-0.07040501 101:0.09380197 102:0.2205888 103:0.2729622 104:0.04836611 105:0.3120849 106:0.01778655 107:0.7138807 108:-0.2209897 109:0.2105975 110:0.5333932 111:0.7410632 112:-0.1482558 113:0.6941957 114:-0.7391008 115:0.3084526 116:-0.6994056 117:0.6672952 118:-0.1646353 119:1.010463 120:-0.2068292 121:1.359383 122:-0.5430677 123:1.507993 124:-0.7117495 125:0.09449024 126:0.09634005 127:0.01665993 128:0.3463432 129:0.9874607 130:-8.065084 133:0.0001581489 134:-5.55256e-05 135:0.005533253 136:-0.002712317 139:0.005830952 140:0.016 141:0.001392839 142:0.0014 
0 2 1.5026670956412682 0 1:146 2:-8.136023 3:16.52135 4:6.783479 5:30.91195 6:22.93884 7:6.64731 8:28.19983 9:34.90588 10:19.99734 11:21.00317 12:-4.253041 13:1.753817 14:14.08955 15:-0.3746464 16:-0.5587656 17:-2.387856 18:-1.802983 19:-0.819593 20:-1.086565 21:1.182439 22:1.697322 23:2.000211 24:4.884104 25:-0.5460848 26:-2.342612 27:0.008995819 28:0.5438212 29:-0.03407105 30:-1.075632 31:-1.108465 32:-0.01078014 33:0.7934331 34:0.4283673 35:-0.682513 36:-1.16015 37:-0.7327456 38:-0.07302955 39:0.4989628 40:-0.006691237 41:0.3523618 42:-6.086739 44:0.0001909421 45:0.01008936 48:-0.0009999999 49:0.5713251 50:-7.682597 51:1.31851 52:17.00776 53:3.850356 54:9.876418 55:3.265556 56:32.84883 57:1.282162 58:23.93261 59:2.65667 60:8.481565 61:1.950517 62:26.60909 63:2.895605 64:32.5444 65:3.45009 66:17.67283 67:7.850457 68:14.74529 69:1.45975 70:-3.296728 71:3.951749 72:4.975849 73:0.01672984 74:14.07651 75:0.8101441 76:-0.8130715 77:0.3701785 78:-0.0782361 79:2.369466 80:0.2633338 81:2.132359 82:0.8887074 83:0.3764148 84:-0.2409457 85:1.277957 86:-1.733134 87:1.062819 88:-0.154221 89:0.9859328 90:1.493595 91:1.6358 92:2.005113 93:1.642765 94:2.780105 95:0.4006436 96:-0.1927755 97:0.9662876 98:-1.625417 99:0.01009023 100:0.01351837 101:0.2508321 102:0.4805508 103:0.4384857 104:-0.2583228 105:1.405951 106:-1.148142 107:1.10177 108:-1.1191 109:0.2493645 110:0.2288275 111:0.310378 112:0.4408048 113:0.4270395 114:0.05341347 115:0.1095178 116:-0.5587676 117:0.3794106 118:-0.6946627 119:1.015598 120:-0.2942568 121:0.1612284 122:-0.05484554 123:0.7253659 124:0.06500876 125:0.008753949 126:0.001047399 127:0.04718781 128:0.3168789 129:2.540586 130:-7.92509 133:6.133477e-05 134:8.556639e-05 135:0.00335456 136:0.005036756 139:0.002 140:0.0009999999 141:0.000678233 142:-0.0008 
0 2 2 0 1:156 2:-8.233704 3:17.46336 4:0.2435846 5:27.63256 6:27.22178 7:9.527643 8:18.50379 9:28.56079 10:21.28543 11:10.36766 12:0.5244665 13:13.48397 14:13.51854 15:-1.098568 16:-0.1451997 17:-0.09356184 18:-0.09426326 19:0.5291442 20:0.591123 21:2.83887 22:0.8323881 23:1.287228 24:-0.9790547 25:0.1111565 26:3.650956 27:-0.09576626 28:0.06517665 29:-0.03514929 30:-0.129215 31:0.3899769 32:0.2158007 33:-0.5201045 34:-0.738802 35:-0.2665504 36:0.01676543 37:0.2670669 38:0.4793244 39:0.4179695 40:0.04354196 41:0.2412625 42:-12.433 44:6.748435e-06 45:0.0008993017 47:0.005 49:1.762449 50:-6.838396 51:0.3864346 52:17.56736 53:1.746586 54:0.02203007 55:0.5490589 56:27.64692 57:1.133725 58:26.37886 59:1.783828 60:9.03277 61:4.527869 62:14.99251 63:1.493 64:27.70563 65:2.36587 66:19.42015 67:2.23043 68:11.24899 69:0.2052089 70:0.3831442 71:7.373031 72:7.956062 73:0.2803005 74:13.5901 75:0.553751 76:-0.5712283 77:0.1740199 78:0.0151601 79:0.379006 80:0.3371499 81:0.8004346 82:-0.5677001 83:0.7147071 84:-0.1098643 85:0.7968091 86:0.6396192 87:1.234021 88:2.017332 89:0.5114584 90:0.6113685 91:0.5140967 92:0.5952101 93:0.4811886 94:-0.4916122 95:0.7630975 96:-0.5012828 97:1.821236 98:1.491344 99:0.08029012 100:-0.06590195 101:0.335983 102:-0.0198131 103:0.04262827 104:-0.008205845 105:0.04584062 106:-0.07901956 107:0.4190824 108:-0.004182075 109:0.2502476 110:-0.06197594 111:0.2233113 112:-0.3824319 113:0.9161848 114:-0.09762957 115:0.5316116 116:0.142699 117:0.1909026 118:-0.09539174 119:0.4253114 120:-0.1133296 121:0.1715109 122:0.2026961 123:0.8785568 124:0.1745984 125:0.03396834 126:0.013973 127:0.03964023 128:0.2317754 129:1.950628 130:-13.01583 133:0.0001426892 134:-7.698272e-05 135:0.007505354 136:-0.003942762 140:0.005 141:0.0006324555 142:0.0005 
